{"learner":{"attributes":{"scikit_learn":"{\"_estimator_type\": \"classifier\"}"},"feature_names":["elevation_score","slope_gradient","drainage_proximity_index","impervious_surface_ratio","rainfall_intensity_index","capacity_exceedance_ratio"],"feature_types":["float","float","float","float","float","float"],"gradient_booster":{"model":{"cats":{"enc":[],"feature_segments":[],"sorted_idx":[]},"gbtree_model_param":{"num_parallel_tree":"1","num_trees":"400"},"iteration_indptr":[0,1,2,3,4,5,6,7,8,9,10,11,12,13,14,15,16,17,18,19,20,21,22,23,24,25,26,27,28,29,30,31,32,33,34,35,36,37,38,39,40,41,42,43,44,45,46,47,48,49,50,51,52,53,54,55,56,57,58,59,60,61,62,63,64,65,66,67,68,69,70,71,72,73,74,75,76,77,78,79,80,81,82,83,84,85,86,87,88,89,90,91,92,93,94,95,96,97,98,99,100,101,102,103,104,105,106,107,108,109,110,111,112,113,114,115,116,117,118,119,120,121,122,123,124,125,126,127,128,129,130,131,132,133,134,135,136,137,138,139,140,141,142,143,144,145,146,147,148,149,150,151,152,153,154,155,156,157,158,159,160,161,162,163,164,165,166,167,168,169,170,171,172,173,174,175,176,177,178,179,180,181,182,183,184,185,186,187,188,189,190,191,192,193,194,195,196,197,198,199,200,201,202,203,204,205,206,207,208,209,210,211,212,213,214,215,216,217,218,219,220,221,222,223,224,225,226,227,228,229,230,231,232,233,234,235,236,237,238,239,240,241,242,243,244,245,246,247,248,249,250,251,252,253,254,255,256,257,258,259,260,261,262,263,264,265,266,267,268,269,270,271,272,273,274,275,276,277,278,279,280,281,282,283,284,285,286,287,288,289,290,291,292,293,294,295,296,297,298,299,300,301,302,303,304,305,306,307,308,309,310,311,312,313,314,315,316,317,318,319,320,321,322,323,324,325,326,327,328,329,330,331,332,333,334,335,336,337,338,339,340,341,342,343,344,345,346,347,348,349,350,351,352,353,354,355,356,357,358,359,360,361,362,363,364,365,366,367,368,369,370,371,372,373,374,375,376,377,378,379,380,381,382,383,384,385,386,387,388,389,390,391,392,393,394,395,396,397,398,399,400],"tree_info":[0,0,0,0,0,0,0,0,0,0,0,0,0,0,0,0,0,0,0,0,0,0,0,0,0,0,0,0,0,0,0,0,0,0,0,0,0,0,0,0,0,0,0,0,0,0,0,0,0,0,0,0,0,0,0,0,0,0,0,0,0,0,0,0,0,0,0,0,0,0,0,0,0,0,0,0,0,0,0,0,0,0,0,0,0,0,0,0,0,0,0,0,0,0,0,0,0,0,0,0,0,0,0,0,0,0,0,0,0,0,0,0,0,0,0,0,0,0,0,0,0,0,0,0,0,0,0,0,0,0,0,0,0,0,0,0,0,0,0,0,0,0,0,0,0,0,0,0,0,0,0,0,0,0,0,0,0,0,0,0,0,0,0,0,0,0,0,0,0,0,0,0,0,0,0,0,0,0,0,0,0,0,0,0,0,0,0,0,0,0,0,0,0,0,0,0,0,0,0,0,0,0,0,0,0,0,0,0,0,0,0,0,0,0,0,0,0,0,0,0,0,0,0,0,0,0,0,0,0,0,0,0,0,0,0,0,0,0,0,0,0,0,0,0,0,0,0,0,0,0,0,0,0,0,0,0,0,0,0,0,0,0,0,0,0,0,0,0,0,0,0,0,0,0,0,0,0,0,0,0,0,0,0,0,0,0,0,0,0,0,0,0,0,0,0,0,0,0,0,0,0,0,0,0,0,0,0,0,0,0,0,0,0,0,0,0,0,0,0,0,0,0,0,0,0,0,0,0,0,0,0,0,0,0,0,0,0,0,0,0,0,0,0,0,0,0,0,0,0,0,0,0,0,0,0,0,0,0,0,0,0,0,0,0,0,0,0,0,0,0,0,0,0,0,0,0,0,0,0,0,0,0,0,0,0,0,0,0,0,0,0,0,0,0,0,0,0,0,0,0],"trees":[{"base_weights":[-3.0499196E-3,-2.2384204E-2,2.4728402E-3,8.401393E-2,-3.0141206E-2,1.1572638E-3,8.8173844E-2,7.136648E-2,6.0271037E-1,-4.1827937E-3,-6.1108917E-2,4.878625E-2,-8.769058E-4,7.9654325E-3,2.2306256E-1,-4.4939574E-2,1.1667196E-1,1.2499657E0,1.5028574E-1,-3.5809096E-2,3.5387352E-2,6.1189264E-2,-7.015045E-2,-1.9331309E-1,6.1049704E-2,-1.7169315E-3,1.0687956E-1,8.340304E-2,-1.9654201E-1,3.2257023E-1,-7.587921E-2,-7.303955E-2,6.967775E-1,1.8404486E-2,2.0519009E-1,1.4851409E0,5.03003E-4,-3.5955858E-1,8.089584E-1,-1.2332744E-1,-2.5534118E-2,1.715702E-1,1.9928912E-2,1.6231997E-2,2.602306E-1,-1.8248808E-1,-5.2267563E-2,5.5003148E-2,-4.141778E-1,2.5557932E-2,1.6575478E-1,1.0061449E-2,-7.902277E-3,-3.860154E-1,1.4583686E-1,5.080438E-2,6.3326985E-1,-4.6209723E-1,-4.7734985E-3,1.1887203E-1,4.2832953E-1,-2.3076802E-1,3.4592202E-1,-1.2572891E-2,5.653069E-4,4.827619E-2,-2.2271007E-2,2.0299235E-3,-2.6284928E-2,3.718215E-2,8.767974E-3,2.3277013E-2,8.1694655E-2,8.291424E-3,-5.647823E-2,6.042089E-2,1.6192233E-2,9.5462985E-3,-9.832642E-3,1.4768012E-2,-1.7573312E-3,-3.6773577E-2,9.42992E-3,1.2053717E-2,6.9827796E-4,2.3166898E-3,-3.317024E-2,-2.5423083E-2,2.0933827E-2,-9.664119E-3,1.3641067E-2,1.14777675E-2,-2.8405006E-3,-9.936943E-3,2.7869359E-2,-3.4768652E-2,-1.3707367E-2,2.7051829E-3,-1.2739956E-2,7.105134E-3,5.119854E-2,-8.67966E-3,6.910089E-4,6.339541E-3,-4.759958E-4,3.7818477E-3,-5.1755406E-2,1.1920248E-2,-4.4900454E-3,9.494406E-3,-1.0753454E-3,9.411606E-3,4.064209E-2,-4.51623E-2,-1.4653236E-2,2.3793055E-2,-7.4947826E-3,5.1316716E-2,2.3300198E-3,1.7097043E-2,3.0691294E-2,-3.9819505E-2,-2.6840575E-3,6.1297305E-2,-7.3105446E-3],"categories":[],"categories_nodes":[],"categories_segments":[],"categories_sizes":[],"default_left":[0,0,0,0,0,0,0,0,0,0,0,0,0,0,0,0,0,0,0,0,0,0,0,0,0,0,0,0,0,0,0,0,0,0,0,0,0,0,0,0,0,0,0,0,0,0,0,0,0,0,0,0,0,0,0,0,0,0,0,0,0,0,0,0,0,0,0,0,0,0,0,0,0,0,0,0,0,0,0,0,0,0,0,0,0,0,0,0,0,0,0,0,0,0,0,0,0,0,0,0,0,0,0,0,0,0,0,0,0,0,0,0,0,0,0,0,0,0,0,0,0,0,0,0,0],"id":0,"left_children":[1,3,5,7,9,11,13,15,17,19,21,23,25,27,29,31,33,35,37,39,41,43,45,47,49,51,53,55,57,59,61,63,65,67,69,71,-1,73,75,77,79,81,83,85,87,89,91,93,95,97,99,101,103,105,107,109,111,113,115,117,119,121,123,-1,-1,-1,-1,-1,-1,-1,-1,-1,-1,-1,-1,-1,-1,-1,-1,-1,-1,-1,-1,-1,-1,-1,-1,-1,-1,-1,-1,-1,-1,-1,-1,-1,-1,-1,-1,-1,-1,-1,-1,-1,-1,-1,-1,-1,-1,-1,-1,-1,-1,-1,-1,-1,-1,-1,-1,-1,-1,-1,-1,-1,-1],"loss_changes":[5.5213757E0,9.484472E0,4.534603E0,5.080062E0,8.608191E0,3.8380034E0,6.57703E0,4.0282516E0,5.2161355E0,7.2930064E0,5.4038696E0,4.8291297E0,3.4391365E0,5.915267E0,6.768346E0,4.5268173E0,4.7780027E0,2.1590815E0,4.320197E0,2.9093857E0,5.4463434E0,3.0086176E0,9.125889E0,4.326272E0,5.737574E0,2.7465742E0,5.699602E0,4.9872746E0,5.260067E0,3.6174374E0,3.8316584E0,3.1302702E0,2.8654375E0,3.1805654E0,4.51342E0,1.8881607E-1,0E0,3.203493E0,6.827705E-1,7.872993E0,8.955137E0,4.21268E0,3.0640604E0,5.671548E0,7.7605567E0,3.119957E0,5.036847E0,4.932033E0,1.449233E0,9.258216E0,7.7905836E0,8.963352E0,5.3870697E0,6.6112056E0,5.9782476E0,2.673713E0,1.0924854E0,2.9656105E0,4.327055E0,3.859573E0,1.5801067E0,4.224534E0,7.03245E0,0E0,0E0,0E0,0E0,0E0,0E0,0E0,0E0,0E0,0E0,0E0,0E0,0E0,0E0,0E0,0E0,0E0,0E0,0E0,0E0,0E0,0E0,0E0,0E0,0E0,0E0,0E0,0E0,0E0,0E0,0E0,0E0,0E0,0E0,0E0,0E0,0E0,0E0,0E0,0E0,0E0,0E0,0E0,0E0,0E0,0E0,0E0,0E0,0E0,0E0,0E0,0E0,0E0,0E0,0E0,0E0,0E0,0E0,0E0,0E0,0E0,0E0],"parents":[2147483647,0,0,1,1,2,2,3,3,4,4,5,5,6,6,7,7,8,8,9,9,10,10,11,11,12,12,13,13,14,14,15,15,16,16,17,17,18,18,19,19,20,20,21,21,22,22,23,23,24,24,25,25,26,26,27,27,28,28,29,29,30,30,31,31,32,32,33,33,34,34,35,35,37,37,38,38,39,39,40,40,41,41,42,42,43,43,44,44,45,45,46,46,47,47,48,48,49,49,50,50,51,51,52,52,53,53,54,54,55,55,56,56,57,57,58,58,59,59,60,60,61,61,62,62],"right_children":[2,4,6,8,10,12,14,16,18,20,22,24,26,28,30,32,34,36,38,40,42,44,46,48,50,52,54,56,58,60,62,64,66,68,70,72,-1,74,76,78,80,82,84,86,88,90,92,94,96,98,100,102,104,106,108,110,112,114,116,118,120,122,124,-1,-1,-1,-1,-1,-1,-1,-1,-1,-1,-1,-1,-1,-1,-1,-1,-1,-1,-1,-1,-1,-1,-1,-1,-1,-1,-1,-1,-1,-1,-1,-1,-1,-1,-1,-1,-1,-1,-1,-1,-1,-1,-1,-1,-1,-1,-1,-1,-1,-1,-1,-1,-1,-1,-1,-1,-1,-1,-1,-1,-1,-1],"split_conditions":[4.4433382E-1,3.6569017E-1,5.9759915E-1,3.6232075E-1,4.2413965E-1,4.5061255E-1,9.148668E-1,4.124923E-1,4.1794893E-1,6.671437E-1,4.979049E-1,7.880831E-1,9.982785E-1,8.759798E-1,9.782841E-1,3.5915285E-1,8.8457644E-1,9.400066E-1,9.184078E-1,4.920799E-1,7.0182526E-1,5.976858E-1,7.2654027E-1,5.8183277E-1,7.924537E-1,4.737195E-1,4.6238396E-1,8.7159115E-1,5.2287054E-1,4.9848098E-1,9.931541E-1,2.5007838E-1,9.712232E-1,8.811918E-1,8.905224E-1,8.0554456E-1,5.03003E-4,8.7856084E-1,4.2960048E-1,8.2056814E-1,5.1980627E-1,7.8124547E-1,5.457842E-1,5.6342286E-1,4.272455E-1,9.9570346E-1,7.5007385E-1,4.828523E-1,7.8124547E-1,9.8180175E-1,9.948324E-1,7.820603E-1,7.8038174E-1,4.5765033E-1,5.553252E-1,5.9837025E-1,9.314456E-1,4.6432635E-1,6.167645E-1,2.2190619E-1,9.6082246E-1,3.8984758E-1,4.4234958E-1,-1.2572891E-2,5.653069E-4,4.827619E-2,-2.2271007E-2,2.0299235E-3,-2.6284928E-2,3.718215E-2,8.767974E-3,2.3277013E-2,8.1694655E-2,8.291424E-3,-5.647823E-2,6.042089E-2,1.6192233E-2,9.5462985E-3,-9.832642E-3,1.4768012E-2,-1.7573312E-3,-3.6773577E-2,9.42992E-3,1.2053717E-2,6.9827796E-4,2.3166898E-3,-3.317024E-2,-2.5423083E-2,2.0933827E-2,-9.664119E-3,1.3641067E-2,1.14777675E-2,-2.8405006E-3,-9.936943E-3,2.7869359E-2,-3.4768652E-2,-1.3707367E-2,2.7051829E-3,-1.2739956E-2,7.105134E-3,5.119854E-2,-8.67966E-3,6.910089E-4,6.339541E-3,-4.759958E-4,3.7818477E-3,-5.1755406E-2,1.1920248E-2,-4.4900454E-3,9.494406E-3,-1.0753454E-3,9.411606E-3,4.064209E-2,-4.51623E-2,-1.4653236E-2,2.3793055E-2,-7.4947826E-3,5.1316716E-2,2.3300198E-3,1.7097043E-2,3.0691294E-2,-3.9819505E-2,-2.6840575E-3,6.1297305E-2,-7.3105446E-3],"split_indices":[0,5,0,5,0,0,1,0,0,3,5,1,1,1,1,5,1,1,1,5,3,3,5,3,3,3,0,1,3,3,1,3,1,1,1,1,0,1,0,1,5,1,5,3,0,1,5,3,1,1,1,1,1,0,0,0,5,5,3,3,1,3,3,0,0,0,0,0,0,0,0,0,0,0,0,0,0,0,0,0,0,0,0,0,0,0,0,0,0,0,0,0,0,0,0,0,0,0,0,0,0,0,0,0,0,0,0,0,0,0,0,0,0,0,0,0,0,0,0,0,0,0,0,0,0],"split_type":[0,0,0,0,0,0,0,0,0,0,0,0,0,0,0,0,0,0,0,0,0,0,0,0,0,0,0,0,0,0,0,0,0,0,0,0,0,0,0,0,0,0,0,0,0,0,0,0,0,0,0,0,0,0,0,0,0,0,0,0,0,0,0,0,0,0,0,0,0,0,0,0,0,0,0,0,0,0,0,0,0,0,0,0,0,0,0,0,0,0,0,0,0,0,0,0,0,0,0,0,0,0,0,0,0,0,0,0,0,0,0,0,0,0,0,0,0,0,0,0,0,0,0,0,0],"sum_hessian":[5.1707117E4,1.1487654E4,4.021946E4,7.799344E2,1.070772E4,3.9612395E4,6.0706726E2,7.6248035E2,1.745408E1,5.825598E3,4.8821216E3,1.6215559E3,3.799084E4,3.813597E2,2.2570757E2,2.1375272E2,5.487276E2,6.455619E0,1.0998462E1,3.2378516E3,2.5877468E3,3.356922E2,4.546429E3,7.746743E1,1.5440884E3,3.7697945E4,2.9289383E2,2.7902618E2,1.0233352E2,1.6928067E2,5.642689E1,2.0681891E2,6.933813E0,2.6061572E2,2.8811188E2,5.2601337E0,1.195485E0,6.455619E0,4.542843E0,3.3903955E2,2.898812E3,2.627676E2,2.3249792E3,2.7472244E2,6.0969734E1,6.230868E2,3.9233428E3,3.682094E1,4.064649E1,1.1541212E3,3.899672E2,1.2980098E4,2.4717848E4,2.080144E1,2.7209238E2,2.6444128E2,1.4584917E1,4.2320168E1,6.0013348E1,5.8578766E1,1.1070191E2,4.160288E1,1.4824014E1,6.575168E1,1.4106723E2,5.738328E0,1.195485E0,2.5129094E2,9.324783E0,1.3867626E1,2.7424426E2,1.195485E0,4.064649E0,4.303746E0,2.151873E0,1.673679E0,2.869164E0,6.3838898E1,2.7520065E2,8.3444855E1,2.8153672E3,4.064649E0,2.5870294E2,6.0013348E1,2.2649658E3,2.6396307E2,1.0759365E1,1.0042074E1,5.092766E1,6.092192E2,1.3867626E1,6.144793E1,3.8618948E3,2.4866089E1,1.195485E1,1.2193947E1,2.8452543E1,1.0482013E3,1.0591997E2,3.8064243E2,9.324783E0,2.5942026E2,1.2720678E4,2.9241562E2,2.4425432E4,1.2672141E1,8.129298E0,1.9534225E2,7.675014E1,8.9900475E1,1.745408E2,4.78194E0,9.802977E0,1.05202675E1,3.17999E1,1.3389432E1,4.6623917E1,3.347358E0,5.5231407E1,7.746743E1,3.323448E1,9.085686E0,3.2517193E1,4.78194E0,1.0042074E1],"tree_param":{"num_deleted":"0","num_feature":"6","num_nodes":"125","size_leaf_vector":"1"}},{"base_weights":[3.763196E-4,-7.984628E-3,2.0194598E-2,-2.032653E-1,-7.2312574E-3,4.8415095E-1,1.7324084E-2,-1.2009077E-3,-3.1666008E-1,4.2577982E-2,-9.795673E-3,-1.1218442E-1,5.925706E-1,-5.095012E-2,2.7313145E-2,-1.3827719E-1,1.0048991E0,-4.3433344E-1,1.4862289E-3,9.112068E-3,1.1004975E-1,-6.0581274E-2,-5.9231916E-3,-3.1611E-1,3.8876545E-2,9.5267767E-1,4.5370156E-1,-5.8349654E-2,5.1622903E-1,4.4895954E-2,4.619324E-4,-4.0282747E-1,3.790706E-1,6.277674E-2,1.4294897E-2,-2.9009813E-1,-7.5485086E-1,6.1640275E-1,-3.0267632E-1,1.3818102E-1,-2.3676492E-2,2.2608884E-1,3.4808535E-2,5.8390703E-2,-8.6847745E-2,-2.7846875E-2,5.923216E-4,3.8885456E-2,-5.9947574E-1,2.7593207E-1,1.3489169E0,1.0372461E-1,6.9328845E-1,-6.6522527E-1,-5.458294E-2,3.4723887E-1,6.780859E-2,2.8541667E-2,8.532045E-2,-6.2153436E-2,1.7898718E-2,-9.68911E-3,-3.386299E-2,5.137374E-2,6.379881E-3,-2.5706649E-2,1.1780373E-2,-6.0939778E-2,-1.871421E-2,-2.227613E-2,4.2319756E-2,-1.003785E-3,-3.3002637E-2,8.8417195E-3,-3.225154E-2,-1.5073104E-3,3.8502116E-2,-7.2984E-3,1.4760956E-2,3.3632503E-3,-2.2856563E-2,8.473806E-3,-7.1136965E-3,-3.5698235E-3,-1.4791531E-2,-2.9108266E-4,-2.728128E-3,3.1818275E-3,-1.379301E-4,2.339091E-2,-3.8821585E-2,3.649219E-2,-1.3988231E-2,8.8442326E-2,2.247235E-2,-7.0797787E-3,3.5638507E-2,4.406723E-2,2.9924053E-3,-7.349772E-3,-4.600594E-2,3.2411005E-2,-2.9497147E-3,2.6881812E-2,-4.361393E-2,1.8949719E-3,-7.186404E-3,1.008271E-2,3.428431E-3,-8.210971E-3,-9.4745256E-4,3.50589E-3,-8.896493E-4],"categories":[],"categories_nodes":[],"categories_segments":[],"categories_sizes":[],"default_left":[0,0,0,0,0,0,0,0,0,0,0,0,0,0,0,0,0,0,0,0,0,0,0,0,0,0,0,0,0,0,0,0,0,0,0,0,0,0,0,0,0,0,0,0,0,0,0,0,0,0,0,0,0,0,0,0,0,0,0,0,0,0,0,0,0,0,0,0,0,0,0,0,0,0,0,0,0,0,0,0,0,0,0,0,0,0,0,0,0,0,0,0,0,0,0,0,0,0,0,0,0,0,0,0,0,0,0,0,0,0,0,0,0],"id":1,"left_children":[1,3,5,7,9,11,13,15,17,19,21,23,25,27,29,31,33,35,37,39,41,43,45,47,-1,49,51,53,55,57,59,61,63,-1,-1,65,67,69,71,73,75,77,79,81,83,85,87,-1,89,91,93,95,97,99,101,103,-1,105,107,109,111,-1,-1,-1,-1,-1,-1,-1,-1,-1,-1,-1,-1,-1,-1,-1,-1,-1,-1,-1,-1,-1,-1,-1,-1,-1,-1,-1,-1,-1,-1,-1,-1,-1,-1,-1,-1,-1,-1,-1,-1,-1,-1,-1,-1,-1,-1,-1,-1,-1,-1,-1,-1],"loss_changes":[8.564659E0,5.3465614E0,2.0416119E1,3.1997766E0,4.625977E0,6.1610966E0,1.0396933E1,7.2011514E0,3.3496962E0,4.0031633E0,6.7729864E0,3.0294576E0,3.5644798E0,8.196602E0,6.278219E0,6.4411616E0,7.6935863E-1,2.8001537E0,4.8905883E0,5.0243783E0,5.1246443E0,7.6299925E0,4.5712843E0,4.555275E0,0E0,5.3484764E0,4.9245596E0,4.3565426E0,3.1004362E0,5.310196E0,5.7474236E0,1.6406326E0,2.4877307E0,0E0,0E0,5.6169586E0,3.0121565E0,2.4903805E0,1.7539378E0,7.3948097E0,4.8860297E0,5.9858932E0,5.743621E0,9.87386E0,6.4341497E0,4.313817E0,5.212097E0,0E0,2.448823E0,2.5084722E0,4.1901627E0,3.8946853E0,4.139982E0,1.418757E0,5.962722E0,5.644674E0,0E0,9.230892E0,4.495924E0,5.053139E0,7.675358E0,0E0,0E0,0E0,0E0,0E0,0E0,0E0,0E0,0E0,0E0,0E0,0E0,0E0,0E0,0E0,0E0,0E0,0E0,0E0,0E0,0E0,0E0,0E0,0E0,0E0,0E0,0E0,0E0,0E0,0E0,0E0,0E0,0E0,0E0,0E0,0E0,0E0,0E0,0E0,0E0,0E0,0E0,0E0,0E0,0E0,0E0,0E0,0E0,0E0,0E0,0E0,0E0],"parents":[2147483647,0,0,1,1,2,2,3,3,4,4,5,5,6,6,7,7,8,8,9,9,10,10,11,11,12,12,13,13,14,14,15,15,16,16,17,17,18,18,19,19,20,20,21,21,22,22,23,23,25,25,26,26,27,27,28,28,29,29,30,30,31,31,32,32,35,35,36,36,37,37,38,38,39,39,40,40,41,41,42,42,43,43,44,44,45,45,46,46,48,48,49,49,50,50,51,51,52,52,53,53,54,54,55,55,57,57,58,58,59,59,60,60],"right_children":[2,4,6,8,10,12,14,16,18,20,22,24,26,28,30,32,34,36,38,40,42,44,46,48,-1,50,52,54,56,58,60,62,64,-1,-1,66,68,70,72,74,76,78,80,82,84,86,88,-1,90,92,94,96,98,100,102,104,-1,106,108,110,112,-1,-1,-1,-1,-1,-1,-1,-1,-1,-1,-1,-1,-1,-1,-1,-1,-1,-1,-1,-1,-1,-1,-1,-1,-1,-1,-1,-1,-1,-1,-1,-1,-1,-1,-1,-1,-1,-1,-1,-1,-1,-1,-1,-1,-1,-1,-1,-1,-1,-1,-1,-1],"split_conditions":[5.1724917E-1,4.007844E-1,3.5915285E-1,2.9761264E-1,2.8659195E-1,4.2879975E-1,8.0639297E-1,2.799563E-1,4.642928E-1,2.6425132E-1,4.0721968E-1,9.4865406E-1,4.68573E-1,5.9759915E-1,9.2367166E-1,9.2367166E-1,2.9175997E-1,4.078579E-1,8.4559E-1,4.4281262E-1,3.033179E-1,4.3516317E-1,4.458812E-1,2.735344E-1,3.8876545E-2,3.2147104E-1,5.21653E-1,4.011493E-1,8.0301535E-1,8.8972396E-1,4.435887E-1,8.690241E-1,9.426749E-1,6.277674E-2,1.4294897E-2,3.8073543E-1,4.2712653E-1,7.897867E-1,4.998683E-1,2.564484E-1,5.9837025E-1,4.335485E-1,5.873127E-1,3.6569017E-1,9.8531437E-1,4.2569605E-1,4.5374715E-1,3.8885456E-2,8.135455E-1,9.062167E-1,3.4920353E-1,3.3910283E-1,3.4571972E-1,4.647394E-1,4.34802E-1,6.351857E-1,6.780859E-2,8.854396E-1,8.9401025E-1,5.625207E-1,5.781801E-1,-9.68911E-3,-3.386299E-2,5.137374E-2,6.379881E-3,-2.5706649E-2,1.1780373E-2,-6.0939778E-2,-1.871421E-2,-2.227613E-2,4.2319756E-2,-1.003785E-3,-3.3002637E-2,8.8417195E-3,-3.225154E-2,-1.5073104E-3,3.8502116E-2,-7.2984E-3,1.4760956E-2,3.3632503E-3,-2.2856563E-2,8.473806E-3,-7.1136965E-3,-3.5698235E-3,-1.4791531E-2,-2.9108266E-4,-2.728128E-3,3.1818275E-3,-1.379301E-4,2.339091E-2,-3.8821585E-2,3.649219E-2,-1.3988231E-2,8.8442326E-2,2.247235E-2,-7.0797787E-3,3.5638507E-2,4.406723E-2,2.9924053E-3,-7.349772E-3,-4.600594E-2,3.2411005E-2,-2.9497147E-3,2.6881812E-2,-4.361393E-2,1.8949719E-3,-7.186404E-3,1.008271E-2,3.428431E-3,-8.210971E-3,-9.4745256E-4,3.50589E-3,-8.896493E-4],"split_indices":[4,0,5,4,5,0,1,4,4,4,5,1,0,0,1,1,4,4,1,0,4,0,0,5,0,5,0,5,1,1,0,1,1,0,0,4,4,1,4,4,0,0,0,5,1,0,0,0,1,1,5,5,5,0,5,4,0,1,1,4,4,0,0,0,0,0,0,0,0,0,0,0,0,0,0,0,0,0,0,0,0,0,0,0,0,0,0,0,0,0,0,0,0,0,0,0,0,0,0,0,0,0,0,0,0,0,0,0,0,0,0,0,0],"split_type":[0,0,0,0,0,0,0,0,0,0,0,0,0,0,0,0,0,0,0,0,0,0,0,0,0,0,0,0,0,0,0,0,0,0,0,0,0,0,0,0,0,0,0,0,0,0,0,0,0,0,0,0,0,0,0,0,0,0,0,0,0,0,0,0,0,0,0,0,0,0,0,0,0,0,0,0,0,0,0,0,0,0,0,0,0,0,0,0,0,0,0,0,0,0,0,0,0,0,0,0,0,0,0,0,0,0,0,0,0,0,0,0,0],"sum_hessian":[5.168589E4,3.6350793E4,1.5335099E4,1.386653E2,3.621213E4,9.32644E1,1.5241834E4,5.0207825E1,8.845747E1,1.7723209E3,3.443981E4,1.4342474E1,7.892192E1,1.9448544E3,1.329698E4,4.4946625E1,5.261199E0,6.4306946E1,2.4150528E1,1.1854662E3,5.868548E2,2.4389954E3,3.200081E4,1.2192598E1,2.1498759E0,2.0333649E1,5.8588276E1,1.9206937E3,2.4160635E1,8.034879E3,5.262101E3,2.9885681E1,1.5060942E1,3.3479295E0,1.9132698E0,4.566323E1,1.8643713E1,7.6527104E0,1.6497818E1,2.394967E2,9.459694E2,2.3005408E2,3.568007E2,4.4087274E2,1.9981226E3,7.3307407E3,2.467007E4,2.149763E0,1.0042835E1,8.135399E0,1.219825E1,2.4391413E1,3.419686E1,1.0764484E1,1.9099293E3,2.1290546E1,2.8700888E0,5.7217656E3,2.3131135E3,1.1456207E3,4.11648E3,1.7932188E1,1.1953494E1,3.3464773E0,1.1714465E1,3.203374E1,1.3629493E1,7.4089556E0,1.1234757E1,1.1955365E0,6.4571743E0,9.802513E0,6.695305E0,2.2897067E2,1.0526033E1,9.392753E2,6.694148E0,3.5873356E1,1.9418073E2,3.3552707E2,2.1273638E1,2.838773E2,1.5699545E2,1.86181E3,1.3631241E2,4.0187664E3,3.3119746E3,1.2441758E3,2.3425895E4,1.1945165E0,8.848319E0,4.3053E0,3.8300986E0,7.6569543E0,4.541296E0,1.7934862E1,6.4565506E0,2.6066782E1,8.13008E0,4.068803E0,6.695682E0,1.1003124E1,1.8989261E3,1.8899067E1,2.391479E0,5.42771E3,2.9405563E2,2.897684E2,2.0233452E3,3.398823E2,8.0573846E2,1.6708959E3,2.4455845E3],"tree_param":{"num_deleted":"0","num_feature":"6","num_nodes":"113","size_leaf_vector":"1"}},{"base_weights":[2.4171295E-3,4.3487407E-2,2.3702754E-5,1.9573729E-1,1.6113725E-2,2.1061307E-2,-2.7702313E-3,1.4398573E-1,3.4123084E-1,-3.6627057E-1,2.551171E-2,9.601486E-3,1.813836E-1,-3.303172E-2,1.3689081E-3,3.5789868E-1,9.609911E-2,3.713316E-1,-5.191618E-2,-3.1078935E-1,-5.8335394E-2,6.85215E-2,-4.3489028E-2,5.7388064E-2,-9.464609E-3,3.7944898E-1,1.3674495E-1,-4.1881483E-2,1.3046385E-1,1.5006538E-1,6.856744E-4,6.0849464E-1,-9.203227E-3,-3.3289546E-1,1.598937E-1,-9.617946E-2,4.6653238E-1,-4.2316213E-1,2.0776235E-1,9.138261E-2,-8.296378E-2,-2.8331482E-1,3.0602228E-3,4.6004176E-2,5.9735554E-1,-9.2309736E-2,7.4282945E-3,1.1665419E0,2.8727806E-1,-3.095242E-1,1.699685E-1,-2.6402745E-2,-1.4277379E-1,1.9513485E-1,-5.7063925E-1,-6.948266E-2,2.7266255E-1,-2.2926444E-2,4.0867343E-3,-1.09625915E-2,3.7792854E-2,-1.17990915E-2,5.92254E-2,-3.8546827E-3,-3.1057859E-2,1.1502448E-2,-5.288266E-3,4.751076E-3,-5.640287E-2,2.804018E-2,1.0869182E-2,4.28414E-3,-2.6163084E-2,1.952354E-2,-2.8138747E-2,1.2660989E-3,8.0940705E-3,1.8283498E-2,-6.9676894E-3,-7.5688213E-3,-2.5451183E-2,-4.431139E-3,6.0760784E-3,1.7077228E-3,2.0140951E-2,2.1016976E-2,7.695769E-2,-6.1069313E-3,1.6686957E-2,-1.8924823E-2,6.5125286E-4,8.371624E-2,1.6299268E-2,-1.7334728E-2,2.1851702E-2,2.253924E-2,-2.1792892E-2,3.7797105E-2,7.1386844E-3,-1.5363753E-3,1.6938498E-2,1.7162036E-3,-1.0008345E-2,1.3825481E-2,-5.6994273E-3,-4.517671E-2,-1.0524883E-2,3.4336492E-3,-2.5118891E-2,2.0433826E-2,3.579151E-3,-6.7615793E-3,-1.4165874E-5,1.956942E-3,-1.3969181E-5],"categories":[],"categories_nodes":[],"categories_segments":[],"categories_sizes":[],"default_left":[0,0,0,0,0,0,0,0,0,0,0,0,0,0,0,0,0,0,0,0,0,0,0,0,0,0,0,0,0,0,0,0,0,0,0,0,0,0,0,0,0,0,0,0,0,0,0,0,0,0,0,0,0,0,0,0,0,0,0,0,0,0,0,0,0,0,0,0,0,0,0,0,0,0,0,0,0,0,0,0,0,0,0,0,0,0,0,0,0,0,0,0,0,0,0,0,0,0,0,0,0,0,0,0,0,0,0,0,0,0,0,0,0,0,0],"id":2,"left_children":[1,3,5,7,9,11,13,15,17,19,21,23,25,27,29,31,33,35,-1,37,-1,39,41,43,45,47,49,51,53,55,57,59,61,63,65,67,69,71,73,75,77,79,81,83,85,87,89,91,93,95,97,99,101,103,105,107,109,111,113,-1,-1,-1,-1,-1,-1,-1,-1,-1,-1,-1,-1,-1,-1,-1,-1,-1,-1,-1,-1,-1,-1,-1,-1,-1,-1,-1,-1,-1,-1,-1,-1,-1,-1,-1,-1,-1,-1,-1,-1,-1,-1,-1,-1,-1,-1,-1,-1,-1,-1,-1,-1,-1,-1,-1,-1],"loss_changes":[5.076721E0,1.1849594E1,2.8685782E0,3.21356E0,8.676043E0,1.0510372E1,5.39638E0,3.2574701E0,5.0763426E0,2.2093978E0,6.9912167E0,4.8667192E0,3.322341E0,7.505842E0,3.8502753E0,5.379332E0,7.276762E0,4.997903E0,0E0,3.3234076E0,0E0,5.0324583E0,1.0101704E1,9.336527E0,5.344806E0,4.716242E0,4.6935267E0,7.6771364E0,1.2191309E1,4.6845684E0,3.0298193E0,4.4021177E0,6.9614615E0,2.4956136E0,4.319344E0,3.9853592E0,2.0537186E0,2.386053E0,1.70644E0,5.8694887E0,4.8774414E0,4.3029804E0,8.251045E0,6.298851E0,4.582801E0,8.261198E0,6.857875E0,2.4301043E0,6.195138E0,2.313741E0,4.5447283E0,6.7466416E0,6.653965E0,6.186144E0,2.537871E0,3.796837E0,3.0183773E0,1.2079285E1,5.0470204E0,0E0,0E0,0E0,0E0,0E0,0E0,0E0,0E0,0E0,0E0,0E0,0E0,0E0,0E0,0E0,0E0,0E0,0E0,0E0,0E0,0E0,0E0,0E0,0E0,0E0,0E0,0E0,0E0,0E0,0E0,0E0,0E0,0E0,0E0,0E0,0E0,0E0,0E0,0E0,0E0,0E0,0E0,0E0,0E0,0E0,0E0,0E0,0E0,0E0,0E0,0E0,0E0,0E0,0E0,0E0,0E0],"parents":[2147483647,0,0,1,1,2,2,3,3,4,4,5,5,6,6,7,7,8,8,9,9,10,10,11,11,12,12,13,13,14,14,15,15,16,16,17,17,19,19,21,21,22,22,23,23,24,24,25,25,26,26,27,27,28,28,29,29,30,30,31,31,32,32,33,33,34,34,35,35,36,36,37,37,38,38,39,39,40,40,41,41,42,42,43,43,44,44,45,45,46,46,47,47,48,48,49,49,50,50,51,51,52,52,53,53,54,54,55,55,56,56,57,57,58,58],"right_children":[2,4,6,8,10,12,14,16,18,20,22,24,26,28,30,32,34,36,-1,38,-1,40,42,44,46,48,50,52,54,56,58,60,62,64,66,68,70,72,74,76,78,80,82,84,86,88,90,92,94,96,98,100,102,104,106,108,110,112,114,-1,-1,-1,-1,-1,-1,-1,-1,-1,-1,-1,-1,-1,-1,-1,-1,-1,-1,-1,-1,-1,-1,-1,-1,-1,-1,-1,-1,-1,-1,-1,-1,-1,-1,-1,-1,-1,-1,-1,-1,-1,-1,-1,-1,-1,-1,-1,-1,-1,-1,-1,-1,-1,-1,-1,-1],"split_conditions":[5.4985516E-2,3.068273E-1,2.9373962E-1,3.943111E-2,3.2509807E-1,2.874422E-1,5.9309715E-1,8.1787795E-1,6.6071475E-1,7.173039E-1,8.4115314E-1,3.2559416E-1,2.2371793E-1,8.1473666E-1,6.0188025E-1,2.3981944E-1,8.394371E-1,1.6999026E-1,-5.191618E-2,5.2287054E-1,-5.8335394E-2,9.712232E-1,9.1847193E-1,7.232902E-1,4.395698E-1,7.995353E-1,2.8185034E-1,6.322003E-1,9.717231E-1,8.629653E-1,8.0554456E-1,1.28924E-1,5.8183277E-1,1.9493295E-2,4.2371318E-1,3.1246132E-1,2.7771372E-1,8.170249E-1,9.76533E-1,8.732862E-1,3.1877878E-1,9.210392E-1,3.1263012E-2,9.931541E-1,2.8429192E-1,9.8531437E-1,7.8124547E-1,3.6569017E-1,8.334094E-1,2.340863E-1,3.0954927E-1,6.226973E-1,4.227479E-1,2.547753E-1,8.629653E-1,4.395698E-1,5.3209263E-1,4.393568E-1,8.2735974E-1,-1.09625915E-2,3.7792854E-2,-1.17990915E-2,5.92254E-2,-3.8546827E-3,-3.1057859E-2,1.1502448E-2,-5.288266E-3,4.751076E-3,-5.640287E-2,2.804018E-2,1.0869182E-2,4.28414E-3,-2.6163084E-2,1.952354E-2,-2.8138747E-2,1.2660989E-3,8.0940705E-3,1.8283498E-2,-6.9676894E-3,-7.5688213E-3,-2.5451183E-2,-4.431139E-3,6.0760784E-3,1.7077228E-3,2.0140951E-2,2.1016976E-2,7.695769E-2,-6.1069313E-3,1.6686957E-2,-1.8924823E-2,6.5125286E-4,8.371624E-2,1.6299268E-2,-1.7334728E-2,2.1851702E-2,2.253924E-2,-2.1792892E-2,3.7797105E-2,7.1386844E-3,-1.5363753E-3,1.6938498E-2,1.7162036E-3,-1.0008345E-2,1.3825481E-2,-5.6994273E-3,-4.517671E-2,-1.0524883E-2,3.4336492E-3,-2.5118891E-2,2.0433826E-2,3.579151E-3,-6.7615793E-3,-1.4165874E-5,1.956942E-3,-1.3969181E-5],"split_indices":[2,5,3,2,5,3,5,1,3,3,5,2,2,3,5,5,1,5,0,3,0,1,5,5,2,1,2,3,3,1,1,5,3,2,3,3,5,1,1,1,3,1,2,1,3,1,1,5,1,5,2,3,5,2,1,2,3,3,1,0,0,0,0,0,0,0,0,0,0,0,0,0,0,0,0,0,0,0,0,0,0,0,0,0,0,0,0,0,0,0,0,0,0,0,0,0,0,0,0,0,0,0,0,0,0,0,0,0,0,0,0,0,0,0,0],"split_type":[0,0,0,0,0,0,0,0,0,0,0,0,0,0,0,0,0,0,0,0,0,0,0,0,0,0,0,0,0,0,0,0,0,0,0,0,0,0,0,0,0,0,0,0,0,0,0,0,0,0,0,0,0,0,0,0,0,0,0,0,0,0,0,0,0,0,0,0,0,0,0,0,0,0,0,0,0,0,0,0,0,0,0,0,0,0,0,0,0,0,0,0,0,0,0,0,0,0,0,0,0,0,0,0,0,0,0,0,0,0,0,0,0,0,0],"sum_hessian":[5.164487E4,2.8429956E3,4.8801875E4,4.3232022E2,2.4106753E3,5.720611E3,4.3081266E4,3.203592E2,1.1196103E2,5.6915844E1,2.3537595E3,5.33997E3,3.8064062E2,5.1827676E3,3.7898496E4,5.7413784E1,2.629454E2,1.1028552E2,1.6755093E0,5.4524807E1,2.391038E0,1.4499675E3,9.0379205E2,1.5223634E3,3.8176067E3,6.8628746E1,3.120119E2,4.9173433E3,2.6542438E2,1.7234035E2,3.7726156E4,3.37306E1,2.3683187E1,3.3493828E1,2.2945157E2,1.86566E1,9.162892E1,4.4964687E1,9.560121E0,1.2601858E3,1.8978175E2,1.4608144E2,7.5771063E2,1.4919935E3,3.0369823E1,6.458424E2,3.1717644E3,5.9722757E0,6.2656475E1,2.104275E1,2.9096915E2,4.2643716E3,6.529715E2,2.4366954E2,2.1754837E1,6.190808E1,1.1043227E2,4.749141E3,3.2977016E4,5.0237813E0,2.8706818E1,2.0576435E1,3.1067526E0,1.8417599E1,1.5076227E1,1.8162268E2,4.7828884E1,1.6506042E1,2.1505597E0,6.556863E1,2.6060291E1,7.4150615E0,3.7549625E1,8.126441E0,1.433679E0,6.5127246E2,6.0891327E2,2.0578268E1,1.6920348E2,9.32454E1,5.283604E1,4.272742E2,3.3043643E2,1.445098E3,4.689557E1,2.6782269E1,3.5875547E0,6.042504E2,4.159195E1,4.4387627E1,3.1273767E3,3.1047575E0,2.8675182E0,1.1721206E1,5.093527E1,2.6323519E0,1.8410397E1,1.1716368E1,2.7925278E2,4.2153647E3,4.9006924E1,1.5991716E2,4.9305435E2,1.9297546E2,5.069407E1,1.0520987E1,1.123385E1,4.7568325E1,1.4339756E1,6.5258064E1,4.5174202E1,7.9602954E2,3.9531116E3,3.6517822E3,2.9325234E4],"tree_param":{"num_deleted":"0","num_feature":"6","num_nodes":"115","size_leaf_vector":"1"}},{"base_weights":[-2.584156E-4,-4.1074688E-3,3.36818E-2,-5.1446576E-3,8.39129E-2,3.1016493E-1,2.7443057E-2,-1.53626E-1,-4.537525E-3,-3.5782647E-1,1.400649E-1,5.754756E-1,1.9447833E-1,-6.0014673E-2,2.8303511E-2,-1.9810903E-1,2.4117227E-1,-5.2517243E-3,8.453167E-2,4.7287163E-1,-5.303476E-1,-1.7067872E-2,2.1186304E-1,3.2478544E-1,1.3490325E0,5.6952037E-2,6.034574E-1,3.4724507E-1,2.5532322E-2,-1.5994646E-1,-8.8501525E-1,-6.833719E-1,5.1185274E-1,5.3580526E-2,-6.178892E-3,5.976642E-1,6.785016E-2,9.7051275E-1,-2.483391E-2,-6.9710267E-1,1.5687637E-1,-5.723564E-1,4.5147825E-2,9.8972887E-1,1.8492334E-1,-1.9884896E-1,5.635229E-1,9.942639E-2,3.2877412E-1,-2.582153E-1,2.1985076E-1,8.359153E-1,-2.8267376E-2,3.5513803E-2,1.0984343E0,5.0132953E-2,-2.436858E-3,3.5611955E-3,-1.2705845E-2,1.280575E-2,-5.7374425E-2,-4.5994606E-2,1.0039518E-3,4.3596514E-2,-1.0313453E-2,-8.240983E-3,4.8596445E-3,-2.2004219E-3,-1.9743406E-4,-3.2509898E-3,5.695265E-2,-1.8005926E-2,4.9156747E-3,6.913822E-2,1.5025608E-2,-2.0309238E-2,4.5322258E-2,-3.4347468E-3,-3.7962448E-2,6.835989E-2,-6.802242E-3,-4.0139753E-2,4.0788393E-2,9.106494E-3,-1.2558031E-2,5.5490162E-2,6.042523E-4,3.1407133E-2,7.5408565E-3,-4.264426E-2,3.3490967E-2,3.4361538E-2,-2.8448293E-2,3.82123E-2,-2.234685E-2,3.287385E-3,-5.370876E-2,2.7572976E-3,4.232351E-2,8.804051E-3,4.804759E-2,-3.757545E-2,2.1846225E-2,2.9944835E-2,-5.1166653E-3,6.0400963E-2,5.503772E-4,1.2290737E-3,5.4605296E-3,-1.6065717E-2,1.5093309E-4],"categories":[],"categories_nodes":[],"categories_segments":[],"categories_sizes":[],"default_left":[0,0,0,0,0,0,0,0,0,0,0,0,0,0,0,0,0,0,0,0,0,0,0,0,0,0,0,0,0,0,0,0,0,0,0,0,0,0,0,0,0,0,0,0,0,0,0,0,0,0,0,0,0,0,0,0,0,0,0,0,0,0,0,0,0,0,0,0,0,0,0,0,0,0,0,0,0,0,0,0,0,0,0,0,0,0,0,0,0,0,0,0,0,0,0,0,0,0,0,0,0,0,0,0,0,0,0,0,0,0,0],"id":3,"left_children":[1,3,5,7,9,11,13,15,17,19,21,23,25,-1,27,29,31,33,35,37,39,41,43,45,47,49,51,53,55,57,59,61,63,65,67,69,71,73,75,77,79,81,83,85,87,89,91,-1,93,95,97,99,101,103,105,107,109,-1,-1,-1,-1,-1,-1,-1,-1,-1,-1,-1,-1,-1,-1,-1,-1,-1,-1,-1,-1,-1,-1,-1,-1,-1,-1,-1,-1,-1,-1,-1,-1,-1,-1,-1,-1,-1,-1,-1,-1,-1,-1,-1,-1,-1,-1,-1,-1,-1,-1,-1,-1,-1,-1],"loss_changes":[6.756176E0,4.2409496E0,9.077713E0,4.1379137E0,1.3469812E1,3.4528437E0,5.477152E0,3.3305268E0,2.9090421E0,9.035449E0,5.4270277E0,6.3017216E0,4.5995483E0,0E0,4.54285E0,4.276716E0,5.1996574E0,2.4746256E0,3.0732796E0,2.7658434E0,5.97991E0,5.266401E0,6.7329082E0,3.5581E0,4.6894474E0,3.2788475E0,3.0528903E0,1.0330253E1,3.5137715E0,3.5206904E0,2.8848453E0,8.1994486E-1,4.204E0,6.720358E0,3.7674916E0,4.1373215E0,4.643418E0,1.1202335E0,2.6800182E0,1.5649586E0,4.0217786E0,5.5670867E0,5.619994E0,1.2564535E0,4.745761E0,5.8955812E0,3.0801077E0,0E0,1.8121669E0,5.845087E0,4.279191E0,1.0776014E0,2.520683E0,2.571888E0,1.5302839E0,4.0986238E0,4.1598425E0,0E0,0E0,0E0,0E0,0E0,0E0,0E0,0E0,0E0,0E0,0E0,0E0,0E0,0E0,0E0,0E0,0E0,0E0,0E0,0E0,0E0,0E0,0E0,0E0,0E0,0E0,0E0,0E0,0E0,0E0,0E0,0E0,0E0,0E0,0E0,0E0,0E0,0E0,0E0,0E0,0E0,0E0,0E0,0E0,0E0,0E0,0E0,0E0,0E0,0E0,0E0,0E0,0E0,0E0],"parents":[2147483647,0,0,1,1,2,2,3,3,4,4,5,5,6,6,7,7,8,8,9,9,10,10,11,11,12,12,14,14,15,15,16,16,17,17,18,18,19,19,20,20,21,21,22,22,23,23,24,24,25,25,26,26,27,27,28,28,29,29,30,30,31,31,32,32,33,33,34,34,35,35,36,36,37,37,38,38,39,39,40,40,41,41,42,42,43,43,44,44,45,45,46,46,48,48,49,49,50,50,51,51,52,52,53,53,54,54,55,55,56,56],"right_children":[2,4,6,8,10,12,14,16,18,20,22,24,26,-1,28,30,32,34,36,38,40,42,44,46,48,50,52,54,56,58,60,62,64,66,68,70,72,74,76,78,80,82,84,86,88,90,92,-1,94,96,98,100,102,104,106,108,110,-1,-1,-1,-1,-1,-1,-1,-1,-1,-1,-1,-1,-1,-1,-1,-1,-1,-1,-1,-1,-1,-1,-1,-1,-1,-1,-1,-1,-1,-1,-1,-1,-1,-1,-1,-1,-1,-1,-1,-1,-1,-1,-1,-1,-1,-1,-1,-1,-1,-1,-1,-1,-1,-1],"split_conditions":[6.1557156E-1,5.9759915E-1,5.007131E-1,4.007844E-1,2.1558051E-1,8.385871E-1,5.034059E-1,9.791589E-1,9.982785E-1,3.2509807E-1,9.345237E-1,8.2735974E-1,9.5821023E-1,-6.0014673E-2,4.0156418E-1,5.977664E-1,6.3287276E-1,7.8124547E-1,2.8659195E-1,8.724365E-1,9.5392096E-1,7.977312E-1,9.824302E-1,6.2925553E-1,6.4503354E-1,4.0399083E-1,9.879136E-1,9.443673E-1,5.0754565E-1,8.351599E-1,8.229483E-1,4.252289E-1,9.931541E-1,5.543433E-1,7.9328924E-1,2.1358865E-1,4.104063E-1,2.5049803E-1,5.9919494E-1,7.9066867E-1,9.590907E-1,5.351874E-1,7.2654027E-1,9.677688E-1,7.9066867E-1,4.6711358E-1,8.230927E-1,9.942639E-2,8.316909E-1,3.8847747E-1,5.6381756E-1,3.8847747E-1,6.312416E-1,9.5194143E-1,6.607847E-1,4.7476807E-1,5.0912285E-1,3.5611955E-3,-1.2705845E-2,1.280575E-2,-5.7374425E-2,-4.5994606E-2,1.0039518E-3,4.3596514E-2,-1.0313453E-2,-8.240983E-3,4.8596445E-3,-2.2004219E-3,-1.9743406E-4,-3.2509898E-3,5.695265E-2,-1.8005926E-2,4.9156747E-3,6.913822E-2,1.5025608E-2,-2.0309238E-2,4.5322258E-2,-3.4347468E-3,-3.7962448E-2,6.835989E-2,-6.802242E-3,-4.0139753E-2,4.0788393E-2,9.106494E-3,-1.2558031E-2,5.5490162E-2,6.042523E-4,3.1407133E-2,7.5408565E-3,-4.264426E-2,3.3490967E-2,3.4361538E-2,-2.8448293E-2,3.82123E-2,-2.234685E-2,3.287385E-3,-5.370876E-2,2.7572976E-3,4.232351E-2,8.804051E-3,4.804759E-2,-3.757545E-2,2.1846225E-2,2.9944835E-2,-5.1166653E-3,6.0400963E-2,5.503772E-4,1.2290737E-3,5.4605296E-3,-1.6065717E-2,1.5093309E-4],"split_indices":[4,0,5,0,4,1,5,1,1,5,5,1,1,0,0,4,5,1,5,1,1,1,5,4,4,5,1,1,0,1,5,4,1,5,1,4,5,5,0,1,1,4,5,1,1,5,1,0,1,5,0,5,4,5,4,0,0,0,0,0,0,0,0,0,0,0,0,0,0,0,0,0,0,0,0,0,0,0,0,0,0,0,0,0,0,0,0,0,0,0,0,0,0,0,0,0,0,0,0,0,0,0,0,0,0,0,0,0,0,0,0],"split_type":[0,0,0,0,0,0,0,0,0,0,0,0,0,0,0,0,0,0,0,0,0,0,0,0,0,0,0,0,0,0,0,0,0,0,0,0,0,0,0,0,0,0,0,0,0,0,0,0,0,0,0,0,0,0,0,0,0,0,0,0,0,0,0,0,0,0,0,0,0,0,0,0,0,0,0,0,0,0,0,0,0,0,0,0,0,0,0,0,0,0,0,0,0,0,0,0,0,0,0,0,0,0,0,0,0,0,0,0,0,0,0],"sum_hessian":[5.171484E4,4.6448176E4,5.266663E3,4.590816E4,5.4001746E2,1.1514288E2,5.1515205E3,1.8592523E2,4.5722234E4,6.029706E1,4.7972043E2,3.3755363E1,8.138752E1,2.6316311E0,5.1488887E3,1.675456E2,1.8379637E1,4.535946E4,3.627726E2,1.0069749E1,5.022731E1,1.5069072E2,3.290297E2,2.6565893E1,7.1894703E0,6.175918E1,1.9628342E1,4.328107E1,5.105608E3,1.5989513E2,7.6504707E0,3.8171213E0,1.4562514E1,7.0287146E2,4.465659E4,1.0325539E1,3.5244708E2,4.5601826E0,5.5095663E0,4.040794E1,9.819371E0,1.4356481E1,1.3633424E2,9.817498E0,3.192122E2,8.371455E0,1.8194437E1,3.83602E0,3.3534505E0,2.0844767E1,4.0914413E1,1.41122E1,5.516141E0,3.1327816E1,1.1953255E1,2.71596E3,2.3896477E3,4.6352432E1,1.13542694E2,1.4351647E0,6.215306E0,2.6263747E0,1.1907467E0,9.556537E0,5.005978E0,1.1653134E2,5.8634015E2,2.4850835E3,4.2171504E4,5.0383167E0,5.2872214E0,2.2701418E1,3.2974567E2,2.1645248E0,2.395658E0,4.308936E0,1.2006304E0,3.82598E0,3.658196E1,1.1987588E0,8.620612E0,1.26741495E1,1.6823307E0,9.349655E1,4.2837692E1,8.623213E0,1.1942861E0,2.1564066E1,2.9764813E2,4.7860904E0,3.585365E0,1.6757133E1,1.4373044E0,2.1572082E0,1.1962422E0,1.5578864E1,5.265901E0,3.326011E1,7.654303E0,2.6318445E0,1.1480355E1,1.9182789E0,3.5978622E0,5.500905E0,2.5826912E1,1.0758204E1,1.1950505E0,1.8969376E3,8.190223E2,3.9221764E1,2.350426E3],"tree_param":{"num_deleted":"0","num_feature":"6","num_nodes":"111","size_leaf_vector":"1"}},{"base_weights":[-2.2011586E-4,-1.3681459E-3,9.5976174E-2,-4.37681E-3,2.7628815E-2,-2.8086913E-1,1.3794848E-1,-2.0668276E-2,3.7138214E-4,-6.803248E-2,4.469498E-2,-7.932333E-1,-1.1492051E-1,2.779188E-1,9.323647E-2,-8.489438E-3,-6.645199E-2,6.1767556E-2,-2.2577986E-3,2.551212E-1,-8.758982E-2,4.7071908E-2,-5.572952E-1,1.5859751E-1,-5.9923526E-2,8.987033E-1,-2.8178197E-1,1.8886432E-1,5.516691E-1,4.2617968E-1,6.455934E-2,1.7696436E-3,-6.410431E-2,5.8218086E-1,-7.0639186E-2,-1.9024137E-1,8.2667574E-2,-4.5661316E-3,3.2456983E-2,-1.4587063E-1,5.863868E-1,-3.0237582E-2,-2.1030049E-1,6.027917E-1,4.4774856E-2,2.635011E-1,-9.0407974E-1,4.1292597E-2,-3.7685743E-1,1.2704945E0,2.0346387E-1,-5.272347E-1,5.270012E-2,-5.922882E-1,2.4615872E-1,8.381351E-1,2.0870428E-1,-5.187877E-2,5.3802454E-1,-8.913648E-3,2.0835514E-1,-2.7057503E-3,5.559625E-4,-2.9941895E-3,-4.57036E-2,-1.3640116E-2,4.2352613E-2,-5.5702548E-3,-1.5028564E-3,-2.5371972E-2,-3.6252681E-3,3.857654E-3,2.587072E-2,-7.0751346E-5,-2.2943502E-3,6.4984977E-4,7.872578E-3,1.2431351E-2,-2.6311416E-2,1.0171863E-2,4.218567E-2,5.7875874E-5,-1.5858263E-2,5.4610413E-2,-1.1417007E-2,-1.1200129E-2,5.3037412E-2,-1.1533743E-3,3.2046442E-3,-4.065239E-2,5.9278674E-2,-1.836245E-3,-6.1017837E-2,-2.8845204E-2,8.915698E-4,7.919284E-2,2.3960238E-2,-6.6542025E-3,2.416361E-2,-8.053775E-3,-3.7839483E-2,-3.2723363E-2,1.3392155E-2,-4.6203148E-2,6.278954E-3,1.4642099E-2,-2.9848555E-2,1.6457787E-2,6.7459896E-2,4.1561436E-2,3.3909883E-4,4.6749692E-2,-2.715239E-3,-4.5270375E-3,5.49264E-3,1.757931E-2,-5.851898E-3],"categories":[],"categories_nodes":[],"categories_segments":[],"categories_sizes":[],"default_left":[0,0,0,0,0,0,0,0,0,0,0,0,0,0,0,0,0,0,0,0,0,0,0,0,0,0,0,0,0,0,0,0,0,0,0,0,0,0,0,0,0,0,0,0,0,0,0,0,0,0,0,0,0,0,0,0,0,0,0,0,0,0,0,0,0,0,0,0,0,0,0,0,0,0,0,0,0,0,0,0,0,0,0,0,0,0,0,0,0,0,0,0,0,0,0,0,0,0,0,0,0,0,0,0,0,0,0,0,0,0,0,0,0,0,0,0,0],"id":4,"left_children":[1,3,5,7,9,11,13,15,17,19,21,23,25,27,29,31,33,35,37,39,41,43,45,47,-1,49,51,53,55,57,59,61,63,65,67,69,71,73,75,77,79,81,83,85,87,89,91,-1,93,95,97,99,101,103,105,107,109,-1,111,113,115,-1,-1,-1,-1,-1,-1,-1,-1,-1,-1,-1,-1,-1,-1,-1,-1,-1,-1,-1,-1,-1,-1,-1,-1,-1,-1,-1,-1,-1,-1,-1,-1,-1,-1,-1,-1,-1,-1,-1,-1,-1,-1,-1,-1,-1,-1,-1,-1,-1,-1,-1,-1,-1,-1,-1,-1],"loss_changes":[5.695424E0,4.446298E0,9.658926E0,3.5717764E0,7.8245873E0,5.1194444E0,3.403244E0,5.809784E0,5.7716575E0,4.608862E0,5.8445387E0,5.9076595E0,8.280226E0,3.1174746E0,3.951857E0,4.6969852E0,5.9872847E0,7.749113E0,2.74768E0,5.6206884E0,4.814783E0,5.1443768E0,4.812389E0,2.2082455E0,0E0,1.5371976E0,3.4359076E0,4.6765723E0,2.960887E0,5.939994E0,4.06846E0,3.6324954E0,4.544456E0,3.4356546E0,3.5968733E0,4.173811E0,3.2122297E0,4.186091E0,5.1980824E0,3.0795631E0,2.0966058E0,4.216309E0,5.3723145E0,6.5215106E0,5.2904015E0,6.4704823E0,3.116146E0,0E0,2.9708374E-1,3.1610632E-1,4.0438583E-1,1.8981876E0,2.9866953E0,1.8335555E0,3.9148993E0,3.9934454E0,1.9877088E0,0E0,7.386567E0,2.4888895E0,6.1094975E0,0E0,0E0,0E0,0E0,0E0,0E0,0E0,0E0,0E0,0E0,0E0,0E0,0E0,0E0,0E0,0E0,0E0,0E0,0E0,0E0,0E0,0E0,0E0,0E0,0E0,0E0,0E0,0E0,0E0,0E0,0E0,0E0,0E0,0E0,0E0,0E0,0E0,0E0,0E0,0E0,0E0,0E0,0E0,0E0,0E0,0E0,0E0,0E0,0E0,0E0,0E0,0E0,0E0,0E0,0E0,0E0],"parents":[2147483647,0,0,1,1,2,2,3,3,4,4,5,5,6,6,7,7,8,8,9,9,10,10,11,11,12,12,13,13,14,14,15,15,16,16,17,17,18,18,19,19,20,20,21,21,22,22,23,23,25,25,26,26,27,27,28,28,29,29,30,30,31,31,32,32,33,33,34,34,35,35,36,36,37,37,38,38,39,39,40,40,41,41,42,42,43,43,44,44,45,45,46,46,48,48,49,49,50,50,51,51,52,52,53,53,54,54,55,55,56,56,58,58,59,59,60,60],"right_children":[2,4,6,8,10,12,14,16,18,20,22,24,26,28,30,32,34,36,38,40,42,44,46,48,-1,50,52,54,56,58,60,62,64,66,68,70,72,74,76,78,80,82,84,86,88,90,92,-1,94,96,98,100,102,104,106,108,110,-1,112,114,116,-1,-1,-1,-1,-1,-1,-1,-1,-1,-1,-1,-1,-1,-1,-1,-1,-1,-1,-1,-1,-1,-1,-1,-1,-1,-1,-1,-1,-1,-1,-1,-1,-1,-1,-1,-1,-1,-1,-1,-1,-1,-1,-1,-1,-1,-1,-1,-1,-1,-1,-1,-1,-1,-1,-1,-1],"split_conditions":[5.9759915E-1,6.194741E-1,2.1558051E-1,4.4433382E-1,8.1173503E-1,8.2735974E-1,8.299949E-1,4.3516317E-1,4.5061255E-1,7.072434E-2,5.9685755E-1,7.92392E-1,8.473197E-1,8.1787795E-1,7.072434E-2,9.651908E-1,7.7495934E-3,7.950535E-1,9.383411E-1,6.43153E-1,6.508482E-1,4.007844E-1,2.547753E-1,1.8598454E-1,-5.9923526E-2,1.9774899E-1,9.29762E-1,4.716157E-2,5.642156E-1,8.411949E-1,6.9668204E-1,8.0469066E-1,6.175551E-1,8.403009E-1,4.3971154E-1,4.458812E-1,9.9738246E-1,8.7185574E-1,5.771624E-1,7.968033E-1,3.5407323E-2,5.79583E-1,4.0234756E-1,8.6811274E-1,2.2371793E-1,6.392373E-1,8.507211E-1,4.1292597E-2,7.3574823E-1,8.334094E-1,8.385871E-1,4.0797415E-1,1.4947599E-1,5.0375134E-1,8.1527954E-1,3.2943183E-1,3.1500533E-1,-5.187877E-2,9.365705E-1,9.3148005E-1,5.4512465E-1,-2.7057503E-3,5.559625E-4,-2.9941895E-3,-4.57036E-2,-1.3640116E-2,4.2352613E-2,-5.5702548E-3,-1.5028564E-3,-2.5371972E-2,-3.6252681E-3,3.857654E-3,2.587072E-2,-7.0751346E-5,-2.2943502E-3,6.4984977E-4,7.872578E-3,1.2431351E-2,-2.6311416E-2,1.0171863E-2,4.218567E-2,5.7875874E-5,-1.5858263E-2,5.4610413E-2,-1.1417007E-2,-1.1200129E-2,5.3037412E-2,-1.1533743E-3,3.2046442E-3,-4.065239E-2,5.9278674E-2,-1.836245E-3,-6.1017837E-2,-2.8845204E-2,8.915698E-4,7.919284E-2,2.3960238E-2,-6.6542025E-3,2.416361E-2,-8.053775E-3,-3.7839483E-2,-3.2723363E-2,1.3392155E-2,-4.6203148E-2,6.278954E-3,1.4642099E-2,-2.9848555E-2,1.6457787E-2,6.7459896E-2,4.1561436E-2,3.3909883E-4,4.6749692E-2,-2.715239E-3,-4.5270375E-3,5.49264E-3,1.757931E-2,-5.851898E-3],"split_indices":[0,4,4,0,1,1,1,0,0,2,0,1,1,1,2,1,2,1,2,4,4,0,2,4,0,4,1,2,2,1,2,1,4,1,0,0,1,2,0,1,2,0,0,1,2,4,1,0,2,1,1,2,2,4,1,2,4,0,1,1,4,0,0,0,0,0,0,0,0,0,0,0,0,0,0,0,0,0,0,0,0,0,0,0,0,0,0,0,0,0,0,0,0,0,0,0,0,0,0,0,0,0,0,0,0,0,0,0,0,0,0,0,0,0,0,0,0],"split_type":[0,0,0,0,0,0,0,0,0,0,0,0,0,0,0,0,0,0,0,0,0,0,0,0,0,0,0,0,0,0,0,0,0,0,0,0,0,0,0,0,0,0,0,0,0,0,0,0,0,0,0,0,0,0,0,0,0,0,0,0,0,0,0,0,0,0,0,0,0,0,0,0,0,0,0,0,0,0,0,0,0,0,0,0,0,0,0,0,0,0,0,0,0,0,0,0,0,0,0,0,0,0,0,0,0,0,0,0,0,0,0,0,0,0,0,0,0],"sum_hessian":[5.156987E4,5.0962656E4,6.072151E2,4.617272E4,4.7899365E3,6.0282383E1,5.469327E2,1.041942E4,3.57533E4,7.247114E2,4.0652249E3,1.3823258E1,4.6459126E1,1.3115091E2,4.1578177E2,8.231073E3,2.1883467E3,1.4672742E3,3.4286027E4,4.066944E1,6.8404193E2,4.050155E3,1.5070019E1,4.3095393E0,9.51372E0,5.9470415E0,4.051208E1,1.00233574E2,3.0917345E1,3.1872995E1,3.8390878E2,6.9499995E3,1.281074E3,1.3150701E1,2.175196E3,1.1174685E2,1.3555273E3,3.214916E4,2.1368655E3,1.8651613E1,2.2017828E1,4.6701562E2,2.1702632E2,1.5596158E1,4.0345588E3,4.547294E0,1.0522724E1,1.6771858E0,2.6323533E0,3.3357646E0,2.6112769E0,2.30333E1,1.7478783E1,6.2112803E0,9.402229E1,1.6059574E1,1.485777E1,1.6749812E0,3.0198015E1,2.5470456E2,1.2920421E2,9.9541254E2,5.954587E3,1.2758094E3,5.2645917E0,3.1033618E0,1.0047339E1,1.0842694E3,1.0909266E3,2.93537E1,8.239315E1,1.3397114E3,1.5815936E1,2.9872162E4,2.2769988E3,1.8499559E3,2.869095E2,9.325632E0,9.325982E0,9.568584E0,1.2449244E1,4.2185318E2,4.5162437E1,2.15131E0,2.1487502E2,5.741437E0,9.854721E0,8.9416736E2,3.1403914E3,2.152463E0,2.394831E0,3.110002E0,7.4127226E0,1.4405484E0,1.191805E0,1.6720098E0,1.6637548E0,1.423497E0,1.1877799E0,9.531481E0,1.350182E1,3.6008625E0,1.3877919E1,4.051552E0,2.1597285E0,8.9707924E1,4.3143654E0,8.869897E0,7.189678E0,2.875636E0,1.1982134E1,1.7734287E1,1.2463728E1,1.510956E2,1.03608955E2,8.9658134E1,3.954608E1],"tree_param":{"num_deleted":"0","num_feature":"6","num_nodes":"117","size_leaf_vector":"1"}},{"base_weights":[8.173571E-4,-1.4995281E-2,5.3281044E-3,8.357876E-2,-2.2432182E-2,4.5501206E-2,3.2036118E-3,-4.5916084E-2,1.7068197E-1,-6.732342E-3,-4.766208E-2,-4.799142E-1,4.96303E-2,8.8631324E-2,2.1769728E-3,-6.9589433E-3,-4.8688987E-1,2.121929E-1,-1.12704486E-1,1.6735421E-2,-4.420782E-2,-1.253105E-1,-2.8327698E-2,2.0435646E-1,-8.398114E-1,4.7492713E-1,4.2364795E-2,1.3493913E-1,-2.3965086E-1,-3.5857234E-2,4.3048384E-3,5.5486728E-2,-1.0988894E-1,2.1062794E-1,-7.710983E-1,6.0977733E-1,1.8512881E-1,-7.716198E-1,1.097746E-2,1.2873524E-2,2.4922614E-1,-6.892276E-2,1.986483E-2,9.866848E-2,-1.5304773E-1,7.14717E-2,-5.0583318E-2,5.470065E-2,-4.359504E-2,-6.749971E-2,-2.725247E-1,7.7064013E-1,1.8436302E-1,-1.390603E-1,5.3985674E-2,2.6814452E-1,4.2263255E-2,-4.56721E-2,-6.371496E-1,5.2464106E-3,-1.1689201E-1,-7.863692E-3,1.1666292E-2,1.1155944E-3,5.0470263E-2,-3.8015384E-2,9.170115E-4,-4.0418465E-2,3.4490988E-2,-4.4048775E-2,2.3368785E-2,6.5267205E-2,1.707713E-2,5.9679924E-3,1.5556465E-2,2.3289362E-2,-4.9834743E-2,3.6821097E-2,-9.7419E-3,1.0046997E-3,-4.787791E-3,2.2666005E-2,-1.1718789E-3,-1.7510376E-4,-6.4211483E-3,3.3486582E-2,-1.932632E-4,1.313401E-2,-1.4286384E-2,-8.043234E-3,3.2335144E-2,2.4260538E-4,1.1472172E-2,-2.1104382E-3,-1.4539051E-2,-4.8749134E-2,6.914545E-3,4.2815827E-2,7.037355E-3,3.0887662E-2,-1.9715484E-2,-1.651301E-2,-8.160225E-4,-2.0936797E-3,3.945879E-3,-1.4759457E-3,2.0217769E-2,-3.2632273E-2,3.5735879E-3,-7.9821935E-3,5.9974816E-2,2.2965323E-2,-4.242571E-2,-1.3019688E-2,1.5952683E-3,-6.9619254E-3,1.1459688E-2,-5.9982506E-4,7.2487006E-3,1.9462019E-3,2.2085935E-5],"categories":[],"categories_nodes":[],"categories_segments":[],"categories_sizes":[],"default_left":[0,0,0,0,0,0,0,0,0,0,0,0,0,0,0,0,0,0,0,0,0,0,0,0,0,0,0,0,0,0,0,0,0,0,0,0,0,0,0,0,0,0,0,0,0,0,0,0,0,0,0,0,0,0,0,0,0,0,0,0,0,0,0,0,0,0,0,0,0,0,0,0,0,0,0,0,0,0,0,0,0,0,0,0,0,0,0,0,0,0,0,0,0,0,0,0,0,0,0,0,0,0,0,0,0,0,0,0,0,0,0,0,0,0,0,0,0,0,0,0,0],"id":5,"left_children":[1,3,5,7,9,11,13,15,17,19,21,23,25,27,29,31,33,35,37,39,41,43,45,47,49,51,53,55,57,59,61,63,65,67,69,71,73,75,77,79,81,83,85,87,89,91,93,-1,-1,-1,95,97,99,101,103,105,107,109,111,113,115,117,119,-1,-1,-1,-1,-1,-1,-1,-1,-1,-1,-1,-1,-1,-1,-1,-1,-1,-1,-1,-1,-1,-1,-1,-1,-1,-1,-1,-1,-1,-1,-1,-1,-1,-1,-1,-1,-1,-1,-1,-1,-1,-1,-1,-1,-1,-1,-1,-1,-1,-1,-1,-1,-1,-1,-1,-1,-1,-1],"loss_changes":[3.6856382E0,8.409384E0,3.4311435E0,9.0851E0,4.2241035E0,4.4045568E0,3.3488066E0,5.569803E0,5.6862955E0,5.783419E0,6.137726E0,4.072172E0,6.1735015E0,6.9253182E0,3.0539565E0,1.9285605E0,5.3799534E0,4.4085045E0,5.07368E0,3.627707E0,4.0112906E0,5.07971E0,7.280949E0,6.9511404E0,2.6927752E0,2.7422924E0,4.1647787E0,4.9020844E0,4.3207607E0,6.659867E0,3.2011466E0,5.8897123E0,9.461351E0,4.661669E0,2.9856186E0,4.4693413E0,3.2349463E0,3.2038603E0,8.104004E0,3.1228442E0,3.684712E0,7.113497E0,1.0884688E1,5.7768435E0,4.6413403E0,6.290635E0,5.3778996E0,0E0,0E0,0E0,1.9414365E0,7.603588E-1,4.819615E0,2.7868028E0,4.433951E0,6.6252785E0,4.834762E0,5.7246885E0,4.659539E0,9.408634E0,5.235736E0,8.510145E0,6.8123064E0,0E0,0E0,0E0,0E0,0E0,0E0,0E0,0E0,0E0,0E0,0E0,0E0,0E0,0E0,0E0,0E0,0E0,0E0,0E0,0E0,0E0,0E0,0E0,0E0,0E0,0E0,0E0,0E0,0E0,0E0,0E0,0E0,0E0,0E0,0E0,0E0,0E0,0E0,0E0,0E0,0E0,0E0,0E0,0E0,0E0,0E0,0E0,0E0,0E0,0E0,0E0,0E0,0E0,0E0,0E0,0E0,0E0,0E0],"parents":[2147483647,0,0,1,1,2,2,3,3,4,4,5,5,6,6,7,7,8,8,9,9,10,10,11,11,12,12,13,13,14,14,15,15,16,16,17,17,18,18,19,19,20,20,21,21,22,22,23,23,24,24,25,25,26,26,27,27,28,28,29,29,30,30,31,31,32,32,33,33,34,34,35,35,36,36,37,37,38,38,39,39,40,40,41,41,42,42,43,43,44,44,45,45,46,46,50,50,51,51,52,52,53,53,54,54,55,55,56,56,57,57,58,58,59,59,60,60,61,61,62,62],"right_children":[2,4,6,8,10,12,14,16,18,20,22,24,26,28,30,32,34,36,38,40,42,44,46,48,50,52,54,56,58,60,62,64,66,68,70,72,74,76,78,80,82,84,86,88,90,92,94,-1,-1,-1,96,98,100,102,104,106,108,110,112,114,116,118,120,-1,-1,-1,-1,-1,-1,-1,-1,-1,-1,-1,-1,-1,-1,-1,-1,-1,-1,-1,-1,-1,-1,-1,-1,-1,-1,-1,-1,-1,-1,-1,-1,-1,-1,-1,-1,-1,-1,-1,-1,-1,-1,-1,-1,-1,-1,-1,-1,-1,-1,-1,-1,-1,-1,-1,-1,-1,-1],"split_conditions":[4.4433382E-1,2.0157398E-1,4.521583E-1,8.663753E-1,9.148668E-1,7.7495934E-3,7.8038174E-1,4.4125205E-1,8.5987204E-1,4.272455E-1,2.0017228E-1,8.3686334E-1,2.352809E-2,6.05811E-1,4.600025E-1,6.341529E-1,8.0126715E-1,8.7417865E-1,8.863055E-1,9.846152E-1,7.2025675E-1,2.352809E-2,3.410368E-1,4.490596E-1,9.201619E-1,8.698736E-1,1.9587982E-1,4.2744645E-1,6.9267035E-1,9.280047E-1,8.629653E-1,6.1465526E-1,6.9668204E-1,7.837779E-1,8.6036116E-1,4.1008958E-1,5.8364797E-1,8.690241E-1,9.0797573E-1,9.226138E-1,8.490454E-1,3.371698E-1,7.829371E-1,9.738166E-1,9.9914235E-1,9.755892E-1,9.8093563E-1,5.470065E-2,-4.359504E-2,-6.749971E-2,2.4289139E-1,5.977664E-1,1.5624696E-2,4.474542E-1,2.1983099E-1,2.9954472E-1,4.5765033E-1,6.6133815E-1,4.7164994E-1,7.941332E-1,6.4122117E-1,9.733597E-1,9.02697E-1,1.1155944E-3,5.0470263E-2,-3.8015384E-2,9.170115E-4,-4.0418465E-2,3.4490988E-2,-4.4048775E-2,2.3368785E-2,6.5267205E-2,1.707713E-2,5.9679924E-3,1.5556465E-2,2.3289362E-2,-4.9834743E-2,3.6821097E-2,-9.7419E-3,1.0046997E-3,-4.787791E-3,2.2666005E-2,-1.1718789E-3,-1.7510376E-4,-6.4211483E-3,3.3486582E-2,-1.932632E-4,1.313401E-2,-1.4286384E-2,-8.043234E-3,3.2335144E-2,2.4260538E-4,1.1472172E-2,-2.1104382E-3,-1.4539051E-2,-4.8749134E-2,6.914545E-3,4.2815827E-2,7.037355E-3,3.0887662E-2,-1.9715484E-2,-1.651301E-2,-8.160225E-4,-2.0936797E-3,3.945879E-3,-1.4759457E-3,2.0217769E-2,-3.2632273E-2,3.5735879E-3,-7.9821935E-3,5.9974816E-2,2.2965323E-2,-4.242571E-2,-1.3019688E-2,1.5952683E-3,-6.9619254E-3,1.1459688E-2,-5.9982506E-4,7.2487006E-3,1.9462019E-3,2.2085935E-5],"split_indices":[0,4,0,1,1,2,1,0,2,0,2,1,2,4,0,2,1,1,1,2,2,2,2,0,1,1,4,2,2,1,1,2,2,1,1,0,2,1,1,2,1,2,1,1,1,1,2,0,0,0,4,4,2,0,2,4,0,2,0,1,4,2,1,0,0,0,0,0,0,0,0,0,0,0,0,0,0,0,0,0,0,0,0,0,0,0,0,0,0,0,0,0,0,0,0,0,0,0,0,0,0,0,0,0,0,0,0,0,0,0,0,0,0,0,0,0,0,0,0,0,0],"split_type":[0,0,0,0,0,0,0,0,0,0,0,0,0,0,0,0,0,0,0,0,0,0,0,0,0,0,0,0,0,0,0,0,0,0,0,0,0,0,0,0,0,0,0,0,0,0,0,0,0,0,0,0,0,0,0,0,0,0,0,0,0,0,0,0,0,0,0,0,0,0,0,0,0,0,0,0,0,0,0,0,0,0,0,0,0,0,0,0,0,0,0,0,0,0,0,0,0,0,0,0,0,0,0,0,0,0,0,0,0,0,0,0,0,0,0,0,0,0,0,0,0],"sum_hessian":[5.167042E4,1.1467663E4,4.0202758E4,8.037636E2,1.0663899E4,2.0182494E3,3.8184508E4,3.234174E2,4.8034622E2,6.574219E3,4.0896804E3,1.4838702E1,2.0034106E3,4.524249E2,3.7732086E4,2.9809814E2,2.5319237E1,4.191933E2,6.1152916E1,4.0429873E3,2.5312322E3,8.1422144E2,3.275459E3,5.2634716E0,9.575231E0,3.256901E1,1.9708417E3,3.9701105E2,5.5413822E1,1.9982805E3,3.5733805E4,1.858235E2,1.1227465E2,7.4048347E0,1.79144E1,2.5344185E1,3.9384912E2,8.836696E0,5.231622E1,3.9779648E3,6.50225E1,1.8265829E3,7.046493E2,8.9439285E1,7.2478217E2,5.9684686E2,2.678612E3,2.872503E0,2.3909683E0,4.3149185E0,5.260312E0,1.5322634E1,1.7246378E1,1.1797952E2,1.852862E3,1.6211119E2,2.3489987E2,3.798977E1,1.7424053E1,1.3264131E3,6.718674E2,1.3469148E4,2.2264656E4,1.8056723E2,5.256275E0,1.7677832E1,9.459682E1,2.1487E0,5.256135E0,1.6719692E1,1.194708E0,5.9774566E0,1.9366728E1,2.6005466E2,1.3379445E2,1.1953703E0,7.641325E0,1.0992505E1,4.1323715E1,3.7307979E3,2.471669E2,3.6808258E1,2.821424E1,8.7051135E2,9.5607153E2,2.3865002E1,6.807843E2,6.2912724E1,2.6526562E1,7.185577E2,6.2244983E0,4.2053165E2,1.7631522E2,2.5895042E3,8.910803E1,1.4343745E0,3.8259375E0,1.3171604E1,2.1510296E0,9.822441E0,7.4239373E0,4.5464996E1,7.251453E1,3.8229984E2,1.4705623E3,5.1139225E1,1.1097196E2,8.614126E0,2.2628574E2,3.5602795E1,2.3869777E0,2.62642E0,1.4797632E1,1.2017502E2,1.206238E3,6.316781E2,4.0189297E1,1.3115422E4,3.5372617E2,6.4934644E3,1.5771191E4],"tree_param":{"num_deleted":"0","num_feature":"6","num_nodes":"121","size_leaf_vector":"1"}},{"base_weights":[4.104288E-3,-2.605057E-3,1.9924486E-2,-8.75189E-2,-9.2042255E-4,1.0159485E-1,1.620346E-2,-1.8141209E-1,1.7006978E-2,-2.0023624E-3,1.393504E-1,-1.0046937E-1,1.3138156E-1,8.2111605E-2,1.1562854E-2,-1.670036E-1,-7.6798385E-1,8.028018E-1,-1.9450033E-2,1.0337686E-1,-3.2896276E-3,3.3223007E-2,5.7862866E-1,2.073113E-1,-3.3912408E-1,3.9127025E-1,8.465411E-2,-4.5450538E-1,8.9829E-2,-2.3005743E-2,1.9241618E-2,-2.7941954E-1,-9.581661E-2,-1.0696625E0,7.8501686E-4,1.1108881E0,-2.7655822E-1,9.852977E-3,-7.3249924E-1,1.474887E-1,-1.222108E-1,6.2979714E-5,-3.544221E-2,1.21718176E-1,-4.5912337E-1,1.0293462E0,3.8831016E-1,-9.250408E-1,3.6735043E-1,-7.841114E-1,-1.8694866E-1,-7.735685E-1,4.5959905E-1,2.144912E-2,2.142697E-1,-1.0510247E0,6.3758016E-1,5.2057976E-1,8.181355E-2,-8.835579E-2,1.2305156E-2,-1.0741837E-1,2.3764834E-2,-2.209802E-3,-2.1973869E-2,2.9088652E-2,-6.3556484E-3,-1.42169E-2,-6.469468E-2,3.0509833E-2,6.964167E-2,-4.8788052E-2,2.3213899E-2,-1.7310599E-4,4.4907317E-2,4.5362227E-3,-4.3274775E-2,6.3587013E-3,4.257722E-2,-2.6344953E-2,3.4983617E-3,-8.7648645E-5,3.5917812E-3,-3.717572E-3,3.0815902E-3,-1.338615E-2,8.625314E-3,-4.956733E-2,-1.3586821E-2,6.1716188E-2,3.443639E-2,8.727832E-3,5.9962403E-2,9.554607E-4,-6.1057445E-2,5.75276E-3,4.5495953E-2,-4.3545563E-2,4.7676123E-4,5.967603E-3,-2.8193196E-2,-7.6398873E-3,-4.822009E-2,2.5147473E-2,-2.570649E-2,3.2856833E-4,4.3323383E-2,5.754281E-3,2.5833597E-2,-6.2288146E-2,-2.2621466E-2,5.4932665E-2,1.0275115E-3,-1.061013E-2,3.900203E-2,2.2898735E-2,3.6446531E-3,-1.9331252E-3,-1.2091808E-2,1.8754965E-2,8.538923E-6,-4.360758E-3,-3.0150844E-2,6.4519444E-3,9.0666505E-4],"categories":[],"categories_nodes":[],"categories_segments":[],"categories_sizes":[],"default_left":[0,0,0,0,0,0,0,0,0,0,0,0,0,0,0,0,0,0,0,0,0,0,0,0,0,0,0,0,0,0,0,0,0,0,0,0,0,0,0,0,0,0,0,0,0,0,0,0,0,0,0,0,0,0,0,0,0,0,0,0,0,0,0,0,0,0,0,0,0,0,0,0,0,0,0,0,0,0,0,0,0,0,0,0,0,0,0,0,0,0,0,0,0,0,0,0,0,0,0,0,0,0,0,0,0,0,0,0,0,0,0,0,0,0,0,0,0,0,0,0,0,0,0,0,0],"id":6,"left_children":[1,3,5,7,9,11,13,15,17,19,21,23,25,27,29,31,33,35,37,39,41,43,45,47,49,51,53,55,57,59,61,63,65,67,-1,69,71,73,75,77,79,81,83,85,87,89,91,93,95,97,99,101,103,105,107,109,111,113,115,117,119,121,123,-1,-1,-1,-1,-1,-1,-1,-1,-1,-1,-1,-1,-1,-1,-1,-1,-1,-1,-1,-1,-1,-1,-1,-1,-1,-1,-1,-1,-1,-1,-1,-1,-1,-1,-1,-1,-1,-1,-1,-1,-1,-1,-1,-1,-1,-1,-1,-1,-1,-1,-1,-1,-1,-1,-1,-1,-1,-1,-1,-1,-1,-1],"loss_changes":[5.489766E0,5.195236E0,4.679111E0,6.936939E0,5.40507E0,4.051759E0,4.5050163E0,3.0180168E0,9.619427E0,4.7944345E0,1.2689356E1,6.443907E0,7.0737143E0,4.0533824E0,3.65415E0,2.8911343E0,2.0611863E0,5.25784E0,6.7216754E0,4.2625136E0,3.7637558E0,9.6683235E0,4.145191E0,7.3200016E0,3.1886477E0,7.432004E0,4.069524E0,9.726564E0,3.2581983E0,5.775212E0,6.4553905E0,5.2835016E0,4.840479E0,7.341304E-1,0E0,8.1319046E-1,2.5801547E0,3.6655924E0,1.4687715E0,5.000969E0,5.505077E0,4.121327E0,1.2457445E1,3.7606122E0,3.1037803E0,2.0586967E-1,6.526465E0,1.4362693E0,4.6129527E0,8.5137224E-1,4.456112E0,4.803915E-1,3.8301105E0,4.211017E0,4.826541E0,5.284653E-1,1.5516694E0,3.4505901E0,3.1199398E0,6.6862617E0,7.1552496E0,3.8377352E0,6.4453735E0,0E0,0E0,0E0,0E0,0E0,0E0,0E0,0E0,0E0,0E0,0E0,0E0,0E0,0E0,0E0,0E0,0E0,0E0,0E0,0E0,0E0,0E0,0E0,0E0,0E0,0E0,0E0,0E0,0E0,0E0,0E0,0E0,0E0,0E0,0E0,0E0,0E0,0E0,0E0,0E0,0E0,0E0,0E0,0E0,0E0,0E0,0E0,0E0,0E0,0E0,0E0,0E0,0E0,0E0,0E0,0E0,0E0,0E0,0E0,0E0,0E0,0E0],"parents":[2147483647,0,0,1,1,2,2,3,3,4,4,5,5,6,6,7,7,8,8,9,9,10,10,11,11,12,12,13,13,14,14,15,15,16,16,17,17,18,18,19,19,20,20,21,21,22,22,23,23,24,24,25,25,26,26,27,27,28,28,29,29,30,30,31,31,32,32,33,33,35,35,36,36,37,37,38,38,39,39,40,40,41,41,42,42,43,43,44,44,45,45,46,46,47,47,48,48,49,49,50,50,51,51,52,52,53,53,54,54,55,55,56,56,57,57,58,58,59,59,60,60,61,61,62,62],"right_children":[2,4,6,8,10,12,14,16,18,20,22,24,26,28,30,32,34,36,38,40,42,44,46,48,50,52,54,56,58,60,62,64,66,68,-1,70,72,74,76,78,80,82,84,86,88,90,92,94,96,98,100,102,104,106,108,110,112,114,116,118,120,122,124,-1,-1,-1,-1,-1,-1,-1,-1,-1,-1,-1,-1,-1,-1,-1,-1,-1,-1,-1,-1,-1,-1,-1,-1,-1,-1,-1,-1,-1,-1,-1,-1,-1,-1,-1,-1,-1,-1,-1,-1,-1,-1,-1,-1,-1,-1,-1,-1,-1,-1,-1,-1,-1,-1,-1,-1,-1,-1,-1,-1,-1,-1],"split_conditions":[5.1724917E-1,4.0392935E-1,4.0850693E-1,5.211839E-1,9.982785E-1,5.351874E-1,5.2741724E-1,5.1346165E-1,1.8222757E-1,4.0617886E-1,4.429057E-1,5.254968E-1,5.548974E-1,4.1089508E-1,4.435887E-1,8.6469626E-1,3.787788E-1,7.901688E-1,9.948324E-1,8.369179E-1,4.8401877E-1,4.0200666E-1,4.490596E-1,4.007844E-1,8.385871E-1,4.716157E-2,9.262386E-1,9.02697E-1,1.5624696E-2,5.762602E-1,7.8543735E-1,2.1574003E-1,8.70731E-1,8.2139415E-1,7.8501686E-4,4.0156418E-1,8.83526E-1,9.922809E-1,5.7205325E-1,5.0760114E-1,8.911727E-1,4.7615314E-1,7.2025675E-1,4.2489043E-1,4.553078E-1,4.802154E-1,5.661429E-1,1.9202843E-1,7.0046586E-1,8.8730484E-1,9.245549E-1,8.724365E-1,9.733597E-1,9.846152E-1,4.0617886E-1,8.533584E-1,3.8426024E-1,5.2135044E-1,7.820603E-1,4.3516317E-1,7.8543735E-1,6.607847E-1,4.5138305E-1,-2.209802E-3,-2.1973869E-2,2.9088652E-2,-6.3556484E-3,-1.42169E-2,-6.469468E-2,3.0509833E-2,6.964167E-2,-4.8788052E-2,2.3213899E-2,-1.7310599E-4,4.4907317E-2,4.5362227E-3,-4.3274775E-2,6.3587013E-3,4.257722E-2,-2.6344953E-2,3.4983617E-3,-8.7648645E-5,3.5917812E-3,-3.717572E-3,3.0815902E-3,-1.338615E-2,8.625314E-3,-4.956733E-2,-1.3586821E-2,6.1716188E-2,3.443639E-2,8.727832E-3,5.9962403E-2,9.554607E-4,-6.1057445E-2,5.75276E-3,4.5495953E-2,-4.3545563E-2,4.7676123E-4,5.967603E-3,-2.8193196E-2,-7.6398873E-3,-4.822009E-2,2.5147473E-2,-2.570649E-2,3.2856833E-4,4.3323383E-2,5.754281E-3,2.5833597E-2,-6.2288146E-2,-2.2621466E-2,5.4932665E-2,1.0275115E-3,-1.061013E-2,3.900203E-2,2.2898735E-2,3.6446531E-3,-1.9331252E-3,-1.2091808E-2,1.8754965E-2,8.538923E-6,-4.360758E-3,-3.0150844E-2,6.4519444E-3,9.0666505E-4],"split_indices":[4,0,0,2,1,4,4,2,4,0,4,4,4,0,0,1,4,2,1,2,4,4,0,0,1,2,1,1,2,4,1,2,1,1,0,0,2,1,2,4,2,4,2,0,0,4,0,2,2,2,1,1,2,2,0,1,2,4,1,0,1,4,0,0,0,0,0,0,0,0,0,0,0,0,0,0,0,0,0,0,0,0,0,0,0,0,0,0,0,0,0,0,0,0,0,0,0,0,0,0,0,0,0,0,0,0,0,0,0,0,0,0,0,0,0,0,0,0,0,0,0,0,0,0,0],"split_type":[0,0,0,0,0,0,0,0,0,0,0,0,0,0,0,0,0,0,0,0,0,0,0,0,0,0,0,0,0,0,0,0,0,0,0,0,0,0,0,0,0,0,0,0,0,0,0,0,0,0,0,0,0,0,0,0,0,0,0,0,0,0,0,0,0,0,0,0,0,0,0,0,0,0,0,0,0,0,0,0,0,0,0,0,0,0,0,0,0,0,0,0,0,0,0,0,0,0,0,0,0,0,0,0,0,0,0,0,0,0,0,0,0,0,0,0,0,0,0,0,0,0,0,0,0],"sum_hessian":[5.1718906E4,3.6317496E4,1.5401412E4,7.055074E2,3.561199E4,6.699878E2,1.4731424E4,3.7126923E2,3.3423816E2,3.5340387E4,2.7160248E2,8.577081E1,5.84217E2,9.679157E2,1.3763509E4,3.6362198E2,7.64726E0,1.3887449E1,3.203507E2,4.255353E2,3.4914848E4,2.196192E2,5.1983257E1,3.7517616E1,4.82532E1,8.790934E1,4.9630765E2,1.290199E1,9.5501373E2,2.5012544E3,1.1262254E4,1.3985028E2,2.237717E2,5.2582035E0,2.389057E0,1.0780977E1,3.106471E0,3.086527E2,1.169801E1,3.5622467E2,6.931063E1,3.1618889E4,3.2959602E3,1.8679681E2,3.2822395E1,1.4124551E1,3.7858707E1,4.0539465E0,3.346367E1,1.1238168E1,3.7015034E1,4.299091E0,8.361025E1,3.3440555E2,1.6190208E2,8.368528E0,4.533461E0,1.6278133E1,9.387356E2,8.768892E2,1.6243651E3,3.875399E2,1.0874714E4,5.7145084E1,8.27052E1,9.102678E0,2.1466902E2,1.6716481E0,3.5865552E0,5.023771E0,5.757207E0,1.4350038E0,1.6714673E0,3.0507587E2,3.5768402E0,1.67123E0,1.0026781E1,3.4738202E2,8.842652E0,2.1755728E1,4.7554905E1,3.0839578E4,7.793107E2,2.353046E3,9.4291425E2,2.1057482E1,1.6573933E2,7.4297576E0,2.5392635E1,7.1799955E0,6.9445558E0,3.092302E1,6.935687E0,1.1912079E0,2.8627386E0,2.3669413E1,9.794256E0,1.0042483E1,1.1956842E0,2.0797369E1,1.6217665E1,1.4342469E0,2.8648438E0,8.050945E1,3.1008003E0,3.2961008E2,4.795478E0,1.22954994E2,3.8947094E1,5.4985623E0,2.869966E0,2.1479003E0,2.385561E0,4.3041835E0,1.1973949E1,2.0579872E1,9.181557E2,6.633608E2,2.1352846E2,5.1603695E1,1.5727615E3,3.7349042E2,1.4049466E1,5.510805E2,1.0323634E4],"tree_param":{"num_deleted":"0","num_feature":"6","num_nodes":"125","size_leaf_vector":"1"}},{"base_weights":[-1.3530315E-4,-1.0742228E-3,7.937076E-2,3.1113269E-2,-3.4420667E-3,-1.13358624E-1,1.2384059E-1,9.797452E-2,9.824185E-3,-1.4865153E-1,-2.5151337E-3,2.0312567E-1,-2.1245296E-1,5.243065E-1,1.0498288E-1,-1.2362297E-2,1.6022587E-1,3.3823317E-3,3.346998E-1,-2.0815986E-1,7.1622735E-1,-2.3123423E-2,2.6701384E-3,-4.679995E-1,3.0020937E-1,-5.7504315E-2,-1.4988723E-1,-5.335517E-2,7.292866E-1,2.6830858E-1,5.4877475E-2,-7.772612E-2,7.736347E-1,8.700499E-1,1.3715965E-1,1.4343894E-2,-1.5751818E-1,-2.911924E-1,5.016283E-1,-3.5730195E-1,3.3664167E-2,-3.6431733E-1,9.6107143E-1,-5.976352E-2,-5.891438E-3,1.9650152E-2,-5.384552E-3,2.1334073E-2,-5.1665794E-2,5.153727E-2,1.8384975E-1,-5.9991425E-1,-1.149136E-2,-2.214223E-2,8.276044E-1,9.1382426E-1,1.7989649E-1,-1.8955763E-1,1.3423322E-1,-1.15998965E-2,2.2852717E-3,4.89756E-2,-3.1680945E-2,5.0943125E-2,-1.4821966E-2,-2.3981867E-2,7.490858E-3,-8.245635E-3,1.198097E-3,2.4755804E-3,-1.7456733E-2,-3.3665735E-2,4.0014545E-3,6.7821145E-2,8.196455E-3,2.5594119E-2,-2.0125149E-2,3.4645997E-2,-3.9688E-3,6.463566E-3,-4.5377385E-2,1.773597E-2,5.744682E-2,1.9268952E-4,-4.0954133E-3,3.0188242E-4,-4.799273E-3,-3.6111884E-3,1.3549747E-3,3.88106E-3,-3.496319E-4,1.8491077E-3,2.8890017E-2,3.1401396E-2,-3.669272E-2,7.329907E-2,-3.4358427E-3,5.2297648E-2,1.7733772E-3,7.429998E-2,1.4589368E-2,-2.4906142E-2,1.2032202E-2,-3.9266195E-2,-3.6574558E-3,-9.5015885E-3,9.5681185E-3],"categories":[],"categories_nodes":[],"categories_segments":[],"categories_sizes":[],"default_left":[0,0,0,0,0,0,0,0,0,0,0,0,0,0,0,0,0,0,0,0,0,0,0,0,0,0,0,0,0,0,0,0,0,0,0,0,0,0,0,0,0,0,0,0,0,0,0,0,0,0,0,0,0,0,0,0,0,0,0,0,0,0,0,0,0,0,0,0,0,0,0,0,0,0,0,0,0,0,0,0,0,0,0,0,0,0,0,0,0,0,0,0,0,0,0,0,0,0,0,0,0,0,0,0,0,0,0],"id":7,"left_children":[1,3,5,7,9,11,13,15,17,19,21,23,25,27,29,31,33,35,37,39,41,43,45,47,49,-1,51,-1,53,55,57,59,61,63,65,67,69,71,73,75,77,79,81,83,85,87,89,-1,-1,-1,91,93,95,-1,97,99,101,103,105,-1,-1,-1,-1,-1,-1,-1,-1,-1,-1,-1,-1,-1,-1,-1,-1,-1,-1,-1,-1,-1,-1,-1,-1,-1,-1,-1,-1,-1,-1,-1,-1,-1,-1,-1,-1,-1,-1,-1,-1,-1,-1,-1,-1,-1,-1,-1,-1],"loss_changes":[3.8599722E0,3.8950024E0,5.186513E0,4.983718E0,6.4069853E0,3.6079743E0,3.6517391E0,5.8103056E0,5.560035E0,1.5688487E1,5.054759E0,1.9397713E0,4.934435E0,7.8972764E0,3.8316798E0,1.5778144E1,8.733366E0,4.599625E0,5.5430226E0,1.0228279E1,5.5520096E0,6.0036182E0,5.1691403E0,2.40367E0,1.9130466E0,0E0,5.14736E0,0E0,2.6629725E0,6.1183286E0,7.0266023E0,5.406384E0,7.4523363E0,3.2235174E0,4.1695004E0,4.212979E0,6.615939E0,1.6864359E0,1.1655253E1,7.092964E0,8.175775E0,1.2856686E0,1.44975E0,4.2852936E0,6.952697E0,8.324324E0,3.4222982E0,0E0,0E0,0E0,1.2835238E0,3.6589665E0,5.538272E0,0E0,3.2031555E0,4.199069E0,4.1591425E0,6.1061325E0,5.0948057E0,0E0,0E0,0E0,0E0,0E0,0E0,0E0,0E0,0E0,0E0,0E0,0E0,0E0,0E0,0E0,0E0,0E0,0E0,0E0,0E0,0E0,0E0,0E0,0E0,0E0,0E0,0E0,0E0,0E0,0E0,0E0,0E0,0E0,0E0,0E0,0E0,0E0,0E0,0E0,0E0,0E0,0E0,0E0,0E0,0E0,0E0,0E0,0E0],"parents":[2147483647,0,0,1,1,2,2,3,3,4,4,5,5,6,6,7,7,8,8,9,9,10,10,11,11,12,12,13,13,14,14,15,15,16,16,17,17,18,18,19,19,20,20,21,21,22,22,23,23,24,24,26,26,28,28,29,29,30,30,31,31,32,32,33,33,34,34,35,35,36,36,37,37,38,38,39,39,40,40,41,41,42,42,43,43,44,44,45,45,46,46,50,50,51,51,52,52,54,54,55,55,56,56,57,57,58,58],"right_children":[2,4,6,8,10,12,14,16,18,20,22,24,26,28,30,32,34,36,38,40,42,44,46,48,50,-1,52,-1,54,56,58,60,62,64,66,68,70,72,74,76,78,80,82,84,86,88,90,-1,-1,-1,92,94,96,-1,98,100,102,104,106,-1,-1,-1,-1,-1,-1,-1,-1,-1,-1,-1,-1,-1,-1,-1,-1,-1,-1,-1,-1,-1,-1,-1,-1,-1,-1,-1,-1,-1,-1,-1,-1,-1,-1,-1,-1,-1,-1,-1,-1,-1,-1,-1,-1,-1,-1,-1,-1],"split_conditions":[5.9759915E-1,3.6894155E-1,6.0493374E-1,4.474542E-1,3.8193527E-1,3.286705E-1,6.762919E-1,4.1715488E-1,3.6569017E-1,6.9876814E-1,4.3971154E-1,1.6999026E-1,3.4920353E-1,8.0037045E-1,8.299949E-1,3.5915285E-1,4.1794893E-1,3.559427E-1,8.239395E-1,5.1772285E-1,4.3436283E-1,9.9312073E-1,4.9035683E-1,2.3142762E-1,2.0320418E-1,-5.7504315E-2,2.8429192E-1,-5.335517E-2,2.3764563E-1,3.344336E-1,8.698736E-1,2.6901263E-1,9.694891E-1,9.443673E-1,7.820603E-1,4.553078E-1,3.4375593E-1,3.469188E-1,8.672169E-1,7.8630996E-1,2.3142762E-1,8.335392E-1,7.2953606E-1,8.351599E-1,4.3516317E-1,2.8112617E-1,2.2190619E-1,2.1334073E-2,-5.1665794E-2,5.153727E-2,9.365705E-1,2.061101E-1,2.9373962E-1,-2.214223E-2,9.57386E-1,8.0217636E-1,8.229483E-1,3.868697E-1,9.345237E-1,-1.15998965E-2,2.2852717E-3,4.89756E-2,-3.1680945E-2,5.0943125E-2,-1.4821966E-2,-2.3981867E-2,7.490858E-3,-8.245635E-3,1.198097E-3,2.4755804E-3,-1.7456733E-2,-3.3665735E-2,4.0014545E-3,6.7821145E-2,8.196455E-3,2.5594119E-2,-2.0125149E-2,3.4645997E-2,-3.9688E-3,6.463566E-3,-4.5377385E-2,1.773597E-2,5.744682E-2,1.9268952E-4,-4.0954133E-3,3.0188242E-4,-4.799273E-3,-3.6111884E-3,1.3549747E-3,3.88106E-3,-3.496319E-4,1.8491077E-3,2.8890017E-2,3.1401396E-2,-3.669272E-2,7.329907E-2,-3.4358427E-3,5.2297648E-2,1.7733772E-3,7.429998E-2,1.4589368E-2,-2.4906142E-2,1.2032202E-2,-3.9266195E-2,-3.6574558E-3,-9.5015885E-3,9.5681185E-3],"split_indices":[0,5,5,0,5,5,5,0,5,3,0,5,5,1,1,5,0,5,1,0,0,5,0,3,5,0,3,0,3,3,1,5,1,1,1,0,3,3,1,1,3,3,3,1,0,3,3,0,0,0,1,3,3,0,1,1,5,3,5,0,0,0,0,0,0,0,0,0,0,0,0,0,0,0,0,0,0,0,0,0,0,0,0,0,0,0,0,0,0,0,0,0,0,0,0,0,0,0,0,0,0,0,0,0,0,0,0],"split_type":[0,0,0,0,0,0,0,0,0,0,0,0,0,0,0,0,0,0,0,0,0,0,0,0,0,0,0,0,0,0,0,0,0,0,0,0,0,0,0,0,0,0,0,0,0,0,0,0,0,0,0,0,0,0,0,0,0,0,0,0,0,0,0,0,0,0,0,0,0,0,0,0,0,0,0,0,0,0,0,0,0,0,0,0,0,0,0,0,0,0,0,0,0,0,0,0,0,0,0,0,0,0,0,0,0,0,0],"sum_hessian":[5.1705586E4,5.1103074E4,6.025106E2,3.500917E3,4.760216E4,1.12667564E2,4.8984308E2,8.446325E2,2.6562847E3,3.0092636E2,4.730123E4,2.6615147E1,8.6052414E1,2.08237E1,4.6901938E2,3.0494214E2,5.3969037E2,2.605629E3,5.065575E1,2.8226437E2,1.8661995E1,9.508257E3,3.7792973E4,2.8807027E0,2.3734446E1,4.2955565E0,8.175686E1,1.8962038E0,1.8927496E1,1.0908534E2,3.5993405E2,2.8236194E2,2.258022E1,1.5829975E1,5.2386035E2,2.4402915E3,1.6533727E2,1.0508836E1,4.0146915E1,1.7429344E2,1.0797093E2,3.3573592E0,1.5304636E1,3.040603E3,6.4676543E3,1.2159086E4,2.5633889E4,1.2103745E0,1.6703283E0,2.181314E0,2.1553131E1,1.8444715E1,6.331214E1,1.193581E0,1.7733915E1,1.2016239E1,9.706911E1,8.78735E1,2.7206055E2,1.2511121E2,1.5725072E2,1.9963558E1,2.6166596E0,1.4151217E1,1.6787573E0,9.792268E0,5.140681E2,1.2344454E2,2.316847E3,7.982879E1,8.550847E1,4.777384E0,5.731452E0,1.0514818E1,2.9632095E1,8.105509E0,1.6618794E2,1.5052743E1,9.291819E1,2.1583116E0,1.1990476E0,4.3033447E0,1.1001291E1,7.853317E2,2.2552712E3,5.7122456E3,7.554088E2,9.1129114E2,1.1247795E4,4.8627383E2,2.5147615E4,1.6496859E1,5.0562716E0,1.4512262E0,1.699349E1,1.4428325E0,6.186931E1,1.365074E1,4.083176E0,5.535516E0,6.480723E0,7.3897967E0,8.9679306E1,1.3424104E1,7.4449394E1,4.040356E1,2.3165698E2],"tree_param":{"num_deleted":"0","num_feature":"6","num_nodes":"107","size_leaf_vector":"1"}},{"base_weights":[1.0607459E-3,3.711016E-2,-8.582753E-4,1.2096832E-1,-3.8117822E-3,-1.5532238E-3,8.722918E-2,1.0609846E-1,4.3335864E-1,2.567542E-1,-2.132516E-2,-6.666202E-2,-7.3741097E-4,-1.6738786E-1,1.731209E-1,2.9541796E-1,7.758138E-2,-4.1540724E-1,7.774301E-1,9.078829E-2,4.2739406E-1,7.877276E-3,-1.4497124E-1,4.3384083E-2,-1.6396347E-1,-1.3755355E-3,8.2204394E-2,-4.2017183E-1,9.756234E-2,2.1105094E-1,-4.419335E-1,3.6684725E-1,-2.8742763E-1,-2.8677943E-1,8.611835E-2,2.2934018E-2,-5.5776757E-1,1.0896976E-1,1.1223564E0,-1.13046944E-1,4.1438675E-1,1.0247658E0,2.289854E-1,4.0307537E-2,-1.767652E-1,-5.7867557E-1,-7.184127E-2,1.7815122E-1,-4.6679262E-2,-6.747089E-1,-9.167785E-2,3.953301E-4,-4.4310216E-2,3.9200135E-2,4.3924552E-1,-3.0615053E-1,-1.0297705E0,6.5111E-1,-8.291666E-2,6.152301E-2,3.9113247E-1,-5.868033E-1,3.334778E-2,1.9884732E-2,-4.8808124E-2,-2.9558713E-2,2.285966E-2,1.8906038E-2,-4.184028E-2,2.1561963E-2,3.6918714E-3,-6.278495E-2,-4.9327943E-3,2.593781E-2,-2.4282975E-2,6.407886E-2,-1.4217873E-2,5.284483E-3,-2.7249599E-2,6.495625E-2,1.33903E-2,5.6438792E-2,1.3547423E-2,-2.0774543E-2,1.817185E-2,6.1910844E-4,1.7231887E-2,-1.45190945E-2,2.6717316E-3,-5.080473E-2,-2.2955734E-2,-7.121946E-3,1.0959431E-2,6.505333E-3,5.261286E-2,-8.325986E-3,6.2761502E-3,-1.167207E-2,-4.0166315E-2,-3.128241E-3,-2.9207468E-2,-2.1878526E-5,3.5735678E-3,1.9043554E-2,-2.5653464E-3,-3.4553034E-3,9.014792E-3,3.9643403E-2,1.323771E-2,-2.4883715E-2,7.4322033E-3,-6.549512E-2,-1.8708287E-2,4.4587996E-2,-2.0215563E-2,3.534146E-2,-1.1032418E-2,8.551348E-3,-1.1536034E-2,3.6299825E-2,1.4568198E-2,-1.9259453E-3,-3.6022548E-2],"categories":[],"categories_nodes":[],"categories_segments":[],"categories_sizes":[],"default_left":[0,0,0,0,0,0,0,0,0,0,0,0,0,0,0,0,0,0,0,0,0,0,0,0,0,0,0,0,0,0,0,0,0,0,0,0,0,0,0,0,0,0,0,0,0,0,0,0,0,0,0,0,0,0,0,0,0,0,0,0,0,0,0,0,0,0,0,0,0,0,0,0,0,0,0,0,0,0,0,0,0,0,0,0,0,0,0,0,0,0,0,0,0,0,0,0,0,0,0,0,0,0,0,0,0,0,0,0,0,0,0,0,0,0,0,0,0,0,0,0,0,0,0],"id":8,"left_children":[1,3,5,7,9,11,13,15,17,19,21,23,25,27,29,31,33,35,37,39,41,43,45,47,49,51,53,55,57,59,61,63,65,67,69,-1,71,73,75,77,79,81,83,85,87,89,91,93,95,97,99,101,103,105,107,109,111,113,115,117,119,121,-1,-1,-1,-1,-1,-1,-1,-1,-1,-1,-1,-1,-1,-1,-1,-1,-1,-1,-1,-1,-1,-1,-1,-1,-1,-1,-1,-1,-1,-1,-1,-1,-1,-1,-1,-1,-1,-1,-1,-1,-1,-1,-1,-1,-1,-1,-1,-1,-1,-1,-1,-1,-1,-1,-1,-1,-1,-1,-1,-1,-1],"loss_changes":[3.5726185E0,8.957556E0,3.001755E0,3.9304829E0,8.014749E0,2.5840855E0,8.423062E0,4.395836E0,1.1587334E1,3.0938153E0,5.942663E0,6.4534616E0,2.5432227E0,6.5594664E0,6.800353E0,4.551321E0,2.241497E0,1.7214034E0,6.2861843E0,3.8293266E0,6.1975126E0,7.9835587E0,9.931213E0,3.4469514E0,1.1742337E1,3.625455E0,5.6157694E0,3.1597729E0,4.882474E0,7.2860355E0,3.1260633E0,4.3475266E0,3.0339775E0,6.36772E0,2.9228683E0,0E0,3.266071E0,2.8270123E0,4.446722E0,3.4559736E0,2.553932E0,7.324648E-1,3.7926035E0,9.632005E0,5.2253513E0,1.8987856E0,5.5828676E0,4.6378274E0,3.541747E0,2.0533352E0,3.9957435E0,2.7110915E0,5.6385674E0,5.0328684E0,2.2175016E0,3.8665385E0,8.7898207E-1,3.4074917E0,4.2169943E0,4.823962E0,3.8967285E0,1.1145029E0,0E0,0E0,0E0,0E0,0E0,0E0,0E0,0E0,0E0,0E0,0E0,0E0,0E0,0E0,0E0,0E0,0E0,0E0,0E0,0E0,0E0,0E0,0E0,0E0,0E0,0E0,0E0,0E0,0E0,0E0,0E0,0E0,0E0,0E0,0E0,0E0,0E0,0E0,0E0,0E0,0E0,0E0,0E0,0E0,0E0,0E0,0E0,0E0,0E0,0E0,0E0,0E0,0E0,0E0,0E0,0E0,0E0,0E0,0E0,0E0,0E0],"parents":[2147483647,0,0,1,1,2,2,3,3,4,4,5,5,6,6,7,7,8,8,9,9,10,10,11,11,12,12,13,13,14,14,15,15,16,16,17,17,18,18,19,19,20,20,21,21,22,22,23,23,24,24,25,25,26,26,27,27,28,28,29,29,30,30,31,31,32,32,33,33,34,34,36,36,37,37,38,38,39,39,40,40,41,41,42,42,43,43,44,44,45,45,46,46,47,47,48,48,49,49,50,50,51,51,52,52,53,53,54,54,55,55,56,56,57,57,58,58,59,59,60,60,61,61],"right_children":[2,4,6,8,10,12,14,16,18,20,22,24,26,28,30,32,34,36,38,40,42,44,46,48,50,52,54,56,58,60,62,64,66,68,70,-1,72,74,76,78,80,82,84,86,88,90,92,94,96,98,100,102,104,106,108,110,112,114,116,118,120,122,-1,-1,-1,-1,-1,-1,-1,-1,-1,-1,-1,-1,-1,-1,-1,-1,-1,-1,-1,-1,-1,-1,-1,-1,-1,-1,-1,-1,-1,-1,-1,-1,-1,-1,-1,-1,-1,-1,-1,-1,-1,-1,-1,-1,-1,-1,-1,-1,-1,-1,-1,-1,-1,-1,-1,-1,-1,-1,-1,-1,-1],"split_conditions":[5.122623E-2,3.3228353E-1,9.9368227E-1,3.2449847E-1,2.5007838E-1,6.276188E-2,2.9954472E-1,8.0554456E-1,1.5624696E-2,8.9401025E-1,8.584724E-1,5.7880783E-1,9.982785E-1,5.211839E-1,9.462832E-1,9.247523E-1,8.0990994E-1,2.5306818E-1,4.7977293E-1,5.392546E-1,9.148668E-1,9.669146E-1,8.773912E-1,3.610699E-1,6.354461E-1,9.8964775E-1,8.9500624E-1,2.8768885E-1,8.265519E-1,8.9573467E-1,6.1170834E-1,3.2255343E-1,2.799563E-1,2.2725338E-1,8.170249E-1,2.2934018E-2,4.893128E-1,9.1573125E-1,9.8441637E-1,4.681324E-1,5.5679464E-1,2.4379268E-1,3.9247814E-1,9.503859E-1,9.8964775E-1,8.2572347E-1,5.997498E-1,3.55478E-1,4.2986816E-1,5.9131867E-1,9.780174E-1,6.607847E-1,2.1248482E-1,6.639171E-1,4.173143E-1,2.544053E-1,3.371698E-1,2.7011904E-1,5.952019E-1,7.241825E-1,9.192617E-1,8.429104E-1,3.334778E-2,1.9884732E-2,-4.8808124E-2,-2.9558713E-2,2.285966E-2,1.8906038E-2,-4.184028E-2,2.1561963E-2,3.6918714E-3,-6.278495E-2,-4.9327943E-3,2.593781E-2,-2.4282975E-2,6.407886E-2,-1.4217873E-2,5.284483E-3,-2.7249599E-2,6.495625E-2,1.33903E-2,5.6438792E-2,1.3547423E-2,-2.0774543E-2,1.817185E-2,6.1910844E-4,1.7231887E-2,-1.45190945E-2,2.6717316E-3,-5.080473E-2,-2.2955734E-2,-7.121946E-3,1.0959431E-2,6.505333E-3,5.261286E-2,-8.325986E-3,6.2761502E-3,-1.167207E-2,-4.0166315E-2,-3.128241E-3,-2.9207468E-2,-2.1878526E-5,3.5735678E-3,1.9043554E-2,-2.5653464E-3,-3.4553034E-3,9.014792E-3,3.9643403E-2,1.323771E-2,-2.4883715E-2,7.4322033E-3,-6.549512E-2,-1.8708287E-2,4.4587996E-2,-2.0215563E-2,3.534146E-2,-1.1032418E-2,8.551348E-3,-1.1536034E-2,3.6299825E-2,1.4568198E-2,-1.9259453E-3,-3.6022548E-2],"split_indices":[2,4,3,4,3,2,4,1,2,1,3,3,1,2,2,3,1,3,3,4,1,1,3,4,3,1,2,4,1,1,4,4,4,4,1,0,3,1,1,4,4,3,4,1,1,1,4,4,3,3,3,4,3,3,3,4,2,4,2,2,1,1,0,0,0,0,0,0,0,0,0,0,0,0,0,0,0,0,0,0,0,0,0,0,0,0,0,0,0,0,0,0,0,0,0,0,0,0,0,0,0,0,0,0,0,0,0,0,0,0,0,0,0,0,0,0,0,0,0,0,0,0,0],"split_type":[0,0,0,0,0,0,0,0,0,0,0,0,0,0,0,0,0,0,0,0,0,0,0,0,0,0,0,0,0,0,0,0,0,0,0,0,0,0,0,0,0,0,0,0,0,0,0,0,0,0,0,0,0,0,0,0,0,0,0,0,0,0,0,0,0,0,0,0,0,0,0,0,0,0,0,0,0,0,0,0,0,0,0,0,0,0,0,0,0,0,0,0,0,0,0,0,0,0,0,0,0,0,0,0,0,0,0,0,0,0,0,0,0,0,0,0,0,0,0,0,0,0,0],"sum_hessian":[5.1641207E4,2.609151E3,4.9032055E4,8.5503595E2,1.7541149E3,4.864923E4,3.828261E2,8.174641E2,3.7571888E1,1.0961344E2,1.6445013E3,6.010323E2,4.8048195E4,9.632674E1,2.8649936E2,1.05789314E2,7.1167474E2,1.077773E1,2.6794159E1,5.634441E1,5.326903E1,1.331069E3,3.134324E2,2.823049E2,3.187274E2,4.768233E4,3.6586734E2,4.8995354E1,4.7331387E1,2.7047614E2,1.602324E1,9.457009E1,1.1219225E1,1.5546622E1,6.961282E2,1.1982918E0,9.579438E0,9.567826E0,1.7226334E1,3.4968407E1,2.1376003E1,1.2242924E1,4.1026108E1,1.1328748E3,1.9819429E2,4.422699E1,2.692054E2,1.1269484E2,1.6961005E2,3.848334E1,2.8024405E2,4.57945E4,1.8878297E3,3.2752768E2,3.8339684E1,4.2540634E1,6.454719E0,1.0996454E1,3.6334934E1,1.4850714E2,1.2196898E2,1.4588197E1,1.4350429E0,9.313477E1,1.4353206E0,8.115012E0,3.1042125E0,7.179822E0,8.3668E0,2.2747887E1,6.7338025E2,3.1126282E0,6.46681E0,5.739837E0,3.8279893E0,1.555471E1,1.671622E0,2.3714645E1,1.125376E1,1.9206153E0,1.9455387E1,1.032139E1,1.9215336E0,6.7207594E0,3.430535E1,1.0386122E3,9.426246E1,1.3252449E2,6.566979E1,7.884101E0,3.6342888E1,2.170615E2,5.2143925E1,1.0791236E2,4.782474E0,1.000296E2,6.9580444E1,9.32063E0,2.9162712E1,2.6566592E2,1.457811E1,4.526506E4,5.294423E2,2.9697786E1,1.858132E3,1.8558293E2,1.4194473E2,1.1496696E1,2.6842987E1,2.9868206E1,1.2672427E1,3.823135E0,2.6315842E0,9.080947E0,1.9155076E0,4.7821903E0,3.1552742E1,1.0833043E2,4.017672E1,2.6556774E1,9.54122E1,3.1115181E0,1.1476679E1],"tree_param":{"num_deleted":"0","num_feature":"6","num_nodes":"123","size_leaf_vector":"1"}},{"base_weights":[8.609505E-4,-6.0282173E-3,1.7109562E-2,4.75301E-2,-8.888151E-3,4.3103892E-1,1.5050389E-2,7.771284E-2,-7.375434E-2,-2.1802222E-2,7.233628E-4,2.857612E-1,9.718598E-1,8.320596E-2,1.0226572E-2,9.071789E-2,-1.5204448E-1,-2.4400218E-1,-1.6268909E-2,-1.4389077E-2,-1.5043929E-1,2.4472404E-1,-7.9296314E-4,9.8273255E-2,6.0558426E-1,1.1543219E0,-2.2858571E-2,1.8317187E-2,2.196592E-1,5.720135E-2,4.943506E-3,2.0324107E-2,1.5682499E-1,-4.198385E-1,2.0683461E-1,1.5937586E-1,-4.5285842E-1,-5.3489264E-2,3.9983734E-1,-8.884583E-3,-1.17102146E-1,-1.5877722E-1,7.227624E-1,3.7373543E-2,4.629715E-1,-5.911308E-3,4.4778384E-2,1.7544349E-1,-5.2037515E-2,1.2691209E0,2.2383027E-1,2.480224E-1,1.5999743E0,-2.3580937E-2,2.183005E-2,3.902399E-2,-4.1850108E-1,3.3110315E-1,7.951113E-2,5.193217E-2,4.710089E-1,-3.4388924E-1,7.6006684E-3,6.132932E-3,-4.1815857E-3,2.9949887E-2,7.16258E-3,-4.001164E-2,-5.1821726E-3,2.8576648E-3,4.5068897E-2,-3.1181774E-3,3.982681E-2,3.2520354E-2,-2.4516499E-2,-2.4093319E-2,-1.1536496E-3,6.625038E-2,2.2776788E-3,-2.2530206E-2,-3.667251E-4,-6.316386E-3,3.9769374E-2,-7.2355405E-3,-4.253864E-2,5.6191534E-2,1.0256585E-2,1.4978732E-2,-2.4860747E-2,2.621595E-2,-4.0055547E-2,5.7092326E-5,-2.3207066E-3,2.0053058E-3,3.0630503E-2,1.6570915E-2,-1.6820442E-2,-2.933065E-4,7.4769035E-2,-1.38929365E-2,4.5291834E-2,3.7610963E-2,-1.47089185E-2,2.168919E-2,8.6476505E-2,-2.9289613E-2,2.5734603E-3,-3.8460847E-2,5.0391606E-3,2.9843232E-2,1.2464511E-2,-8.425086E-3,1.0362399E-2,-6.7999945E-3,3.185202E-3,-6.038392E-3,4.371747E-2,-1.993127E-2,5.368944E-2,-6.3606696E-3,5.3510675E-4],"categories":[],"categories_nodes":[],"categories_segments":[],"categories_sizes":[],"default_left":[0,0,0,0,0,0,0,0,0,0,0,0,0,0,0,0,0,0,0,0,0,0,0,0,0,0,0,0,0,0,0,0,0,0,0,0,0,0,0,0,0,0,0,0,0,0,0,0,0,0,0,0,0,0,0,0,0,0,0,0,0,0,0,0,0,0,0,0,0,0,0,0,0,0,0,0,0,0,0,0,0,0,0,0,0,0,0,0,0,0,0,0,0,0,0,0,0,0,0,0,0,0,0,0,0,0,0,0,0,0,0,0,0,0,0,0,0,0,0,0,0],"id":9,"left_children":[1,3,5,7,9,11,13,15,17,19,21,23,25,27,29,31,33,35,37,39,41,43,45,47,49,51,53,55,57,59,61,63,65,67,69,71,73,75,77,79,81,83,85,87,89,91,93,95,-1,97,99,101,103,-1,-1,105,107,109,111,113,115,117,119,-1,-1,-1,-1,-1,-1,-1,-1,-1,-1,-1,-1,-1,-1,-1,-1,-1,-1,-1,-1,-1,-1,-1,-1,-1,-1,-1,-1,-1,-1,-1,-1,-1,-1,-1,-1,-1,-1,-1,-1,-1,-1,-1,-1,-1,-1,-1,-1,-1,-1,-1,-1,-1,-1,-1,-1,-1,-1],"loss_changes":[5.783697E0,5.558199E0,1.31060295E1,6.7394586E0,4.2755566E0,5.7026005E0,5.032229E0,4.4163313E0,3.5883806E0,1.4013752E1,7.307009E0,3.6231017E0,2.8760023E0,8.954273E0,3.54808E0,6.488946E0,7.7085514E0,7.8721876E0,4.287886E0,7.856696E0,5.9447937E0,5.5024714E0,4.5784926E0,3.6907468E0,5.4162397E0,4.9694576E0,9.09863E-1,6.228251E0,5.0649853E0,3.1270924E0,1.19167595E1,7.2101574E0,4.231312E0,5.419366E0,3.541275E0,4.616462E0,2.8514853E0,3.2950459E0,7.3919144E0,9.029423E0,6.050868E0,7.605589E0,1.3792233E0,9.068832E0,5.02157E0,5.0413084E0,5.2338934E0,3.163993E0,0E0,2.3178778E0,5.5547724E0,1.7421098E0,5.6772804E-1,0E0,0E0,5.1358833E0,5.753766E0,3.7924557E0,4.651034E0,3.168586E0,4.413744E0,7.9699507E0,5.335541E0,0E0,0E0,0E0,0E0,0E0,0E0,0E0,0E0,0E0,0E0,0E0,0E0,0E0,0E0,0E0,0E0,0E0,0E0,0E0,0E0,0E0,0E0,0E0,0E0,0E0,0E0,0E0,0E0,0E0,0E0,0E0,0E0,0E0,0E0,0E0,0E0,0E0,0E0,0E0,0E0,0E0,0E0,0E0,0E0,0E0,0E0,0E0,0E0,0E0,0E0,0E0,0E0,0E0,0E0,0E0,0E0,0E0,0E0],"parents":[2147483647,0,0,1,1,2,2,3,3,4,4,5,5,6,6,7,7,8,8,9,9,10,10,11,11,12,12,13,13,14,14,15,15,16,16,17,17,18,18,19,19,20,20,21,21,22,22,23,23,24,24,25,25,26,26,27,27,28,28,29,29,30,30,31,31,32,32,33,33,34,34,35,35,36,36,37,37,38,38,39,39,40,40,41,41,42,42,43,43,44,44,45,45,46,46,47,47,49,49,50,50,51,51,52,52,55,55,56,56,57,57,58,58,59,59,60,60,61,61,62,62],"right_children":[2,4,6,8,10,12,14,16,18,20,22,24,26,28,30,32,34,36,38,40,42,44,46,48,50,52,54,56,58,60,62,64,66,68,70,72,74,76,78,80,82,84,86,88,90,92,94,96,-1,98,100,102,104,-1,-1,106,108,110,112,114,116,118,120,-1,-1,-1,-1,-1,-1,-1,-1,-1,-1,-1,-1,-1,-1,-1,-1,-1,-1,-1,-1,-1,-1,-1,-1,-1,-1,-1,-1,-1,-1,-1,-1,-1,-1,-1,-1,-1,-1,-1,-1,-1,-1,-1,-1,-1,-1,-1,-1,-1,-1,-1,-1,-1,-1,-1,-1,-1,-1],"split_conditions":[5.1724917E-1,5.122623E-2,3.4920353E-1,4.4666016E-1,9.9312073E-1,1.6126472E-1,5.2741724E-1,5.8963346E-1,4.642928E-1,9.414574E-1,1.7048785E-1,5.2245104E-1,5.5916995E-1,5.372155E-1,7.650758E-1,4.9269947E-1,2.7361754E-2,4.6157193E-1,5.8274144E-1,4.819957E-1,5.9837025E-1,1.6869067E-1,5.79583E-1,1.5322864E-1,5.432691E-1,3.180315E-1,5.79583E-1,5.318071E-1,5.723487E-1,5.9759915E-1,7.864198E-1,4.474542E-1,4.9502578E-1,5.9435767E-1,5.9837025E-1,4.4509307E-1,2.5997832E-1,4.124923E-1,4.802154E-1,4.007844E-1,6.769719E-1,5.9435767E-1,9.686769E-1,8.911727E-1,5.9118944E-1,5.5301523E-1,9.962296E-1,5.997498E-1,-5.2037515E-2,5.2135044E-1,5.898385E-1,1.8434149E-1,5.254968E-1,-2.3580937E-2,2.183005E-2,4.0234756E-1,5.681455E-1,9.6194005E-1,5.819916E-1,3.9772877E-1,5.684231E-1,5.927925E-1,3.1263012E-2,6.132932E-3,-4.1815857E-3,2.9949887E-2,7.16258E-3,-4.001164E-2,-5.1821726E-3,2.8576648E-3,4.5068897E-2,-3.1181774E-3,3.982681E-2,3.2520354E-2,-2.4516499E-2,-2.4093319E-2,-1.1536496E-3,6.625038E-2,2.2776788E-3,-2.2530206E-2,-3.667251E-4,-6.316386E-3,3.9769374E-2,-7.2355405E-3,-4.253864E-2,5.6191534E-2,1.0256585E-2,1.4978732E-2,-2.4860747E-2,2.621595E-2,-4.0055547E-2,5.7092326E-5,-2.3207066E-3,2.0053058E-3,3.0630503E-2,1.6570915E-2,-1.6820442E-2,-2.933065E-4,7.4769035E-2,-1.38929365E-2,4.5291834E-2,3.7610963E-2,-1.47089185E-2,2.168919E-2,8.6476505E-2,-2.9289613E-2,2.5734603E-3,-3.8460847E-2,5.0391606E-3,2.9843232E-2,1.2464511E-2,-8.425086E-3,1.0362399E-2,-6.7999945E-3,3.185202E-3,-6.038392E-3,4.371747E-2,-1.993127E-2,5.368944E-2,-6.3606696E-3,5.3510675E-4],"split_indices":[4,2,5,4,5,2,4,0,4,5,4,0,0,0,5,0,2,0,0,4,0,4,0,2,4,5,0,0,0,0,5,0,0,0,0,0,5,0,4,0,2,0,5,2,0,0,2,4,0,4,4,2,4,0,0,0,2,5,0,5,4,0,2,0,0,0,0,0,0,0,0,0,0,0,0,0,0,0,0,0,0,0,0,0,0,0,0,0,0,0,0,0,0,0,0,0,0,0,0,0,0,0,0,0,0,0,0,0,0,0,0,0,0,0,0,0,0,0,0,0,0],"split_type":[0,0,0,0,0,0,0,0,0,0,0,0,0,0,0,0,0,0,0,0,0,0,0,0,0,0,0,0,0,0,0,0,0,0,0,0,0,0,0,0,0,0,0,0,0,0,0,0,0,0,0,0,0,0,0,0,0,0,0,0,0,0,0,0,0,0,0,0,0,0,0,0,0,0,0,0,0,0,0,0,0,0,0,0,0,0,0,0,0,0,0,0,0,0,0,0,0,0,0,0,0,0,0,0,0,0,0,0,0,0,0,0,0,0,0,0,0,0,0,0,0],"sum_hessian":[5.1666188E4,3.6283258E4,1.538293E4,1.838466E3,3.444479E4,7.511532E1,1.5307814E4,1.4724039E3,3.660619E2,1.4696817E4,1.9747975E4,6.0414814E1,1.4700508E1,1.0107473E3,1.4297067E4,1.3940984E3,7.8305565E1,9.158393E1,2.7447797E2,1.3897063E4,7.9975323E2,1.2097393E2,1.9627E4,3.8911327E1,2.1503485E1,1.2286359E1,2.414149E0,6.85771E2,3.2497632E2,1.4443848E3,1.2852683E4,6.757923E2,7.183061E2,4.474625E1,3.3559315E1,3.1323559E1,6.0260376E1,2.5274187E2,2.1736095E1,1.319122E4,7.05844E2,7.929993E2,6.753929E0,6.2636288E1,5.8337643E1,1.7645965E4,1.9810358E3,3.7234608E1,1.6767197E0,7.0044384E0,1.4499046E1,4.563121E0,7.7232385E0,1.2079067E0,1.2062423E0,6.5560364E2,3.0167376E1,1.8026744E2,1.4470888E2,1.4273354E3,1.7049328E1,9.619176E1,1.275649E4,3.4046112E2,3.353312E2,2.0108627E1,6.981975E2,1.9616297E1,2.5129953E1,2.8499636E1,5.0596795E0,2.390608E1,7.4174786E0,1.4421507E0,5.8818222E1,1.5771841E1,2.3697003E2,5.260074E0,1.647602E1,4.511567E1,1.31461045E4,6.99632E2,6.2119627E0,7.783859E2,1.4613376E1,3.1455798E0,3.608349E0,4.2319393E1,2.0316895E1,5.6195618E1,2.1420255E0,1.5029672E4,2.6162925E3,1.9659302E3,1.5105558E1,2.8808435E1,8.426172E0,1.2024777E0,5.8019605E0,8.695303E0,5.8037434E0,2.1637177E0,2.3994029E0,1.2069731E0,6.5162654E0,1.1903722E1,6.436999E2,1.7718975E1,1.24484005E1,4.0949947E1,1.3931749E2,4.9085583E1,9.56233E1,8.351451E1,1.3438209E3,7.1943855E0,9.854942E0,9.330798E1,2.8837786E0,2.8597015E2,1.24705205E4],"tree_param":{"num_deleted":"0","num_feature":"6","num_nodes":"121","size_leaf_vector":"1"}},{"base_weights":[2.1106268E-3,-1.499201E-2,7.0077097E-3,-4.8288894E-3,-5.3124517E-2,7.877836E-3,-1.0371792E-1,-6.720693E-2,3.7638855E-3,-7.3152676E-2,5.8622044E-2,8.5799575E-2,6.9318414E-3,-8.143214E-2,-7.816368E-1,-3.97389E-2,-4.6353638E-1,2.8492913E-2,-1.8790262E-2,5.079876E-1,-7.724097E-2,2.8449632E-2,7.875452E-1,1.6546126E-1,-1.1609991E-1,-3.3505633E-2,9.460396E-3,-1.2170041E-1,3.396235E-1,1.651247E-4,-8.9061755E-1,-3.701368E-1,-2.7622893E-2,-7.096626E-1,-1.7989108E-1,-3.8479945E-1,3.31068E-2,7.7320606E-2,-3.6823876E-2,1.1355864E0,2.3427229E-1,-5.9115954E-2,-1.8286043E-1,5.342482E-1,7.0201247E-3,1.0705405E0,-3.6591122E-1,1.5186189E-1,1.3112288E0,-4.8428348E-1,3.9873254E-2,3.3338565E-1,-4.0271845E-2,2.4211225E-3,2.6004774E-2,-5.2623276E-2,-3.7082508E-1,2.2538537E-2,1.0307827E0,-7.895015E-3,-1.0144742E0,2.770118E-3,-2.9378563E-2,1.6455202E-3,-5.1133647E-3,-5.1503617E-2,-2.5112644E-2,-3.7529394E-2,1.573371E-2,1.0946964E-2,-3.0290514E-2,2.3739731E-2,1.3807401E-3,-7.8359945E-3,5.0574974E-3,-1.1790848E-2,-1.3816222E-3,2.1269707E-2,7.260511E-2,-8.572264E-3,4.3301445E-2,-9.9789165E-3,-2.3071195E-3,-1.2042371E-2,2.0223929E-2,3.0003302E-3,4.833998E-2,-4.3463553E-3,5.012488E-3,1.7388653E-2,6.831868E-2,-4.8445553E-2,2.3444451E-2,-3.1724487E-2,8.219139E-3,7.737873E-2,2.1505965E-2,-3.036387E-2,4.1839622E-2,9.651515E-3,-1.1962201E-2,2.21121E-4,4.149682E-2,-2.7327338E-2,-1.6079029E-3,-9.98077E-5,3.8549234E-3,4.7093234E-3,4.656388E-4,-3.9294655E-3,4.2182952E-2,-2.703791E-2,1.97942E-2,4.6657447E-2,-1.0415801E-2,8.5315436E-2,1.2361859E-2,-6.495576E-2,-1.876384E-2],"categories":[],"categories_nodes":[],"categories_segments":[],"categories_sizes":[],"default_left":[0,0,0,0,0,0,0,0,0,0,0,0,0,0,0,0,0,0,0,0,0,0,0,0,0,0,0,0,0,0,0,0,0,0,0,0,0,0,0,0,0,0,0,0,0,0,0,0,0,0,0,0,0,0,0,0,0,0,0,0,0,0,0,0,0,0,0,0,0,0,0,0,0,0,0,0,0,0,0,0,0,0,0,0,0,0,0,0,0,0,0,0,0,0,0,0,0,0,0,0,0,0,0,0,0,0,0,0,0,0,0,0,0,0,0,0,0,0,0],"id":10,"left_children":[1,3,5,7,9,11,13,15,17,19,21,23,25,27,29,31,33,35,37,39,41,43,45,47,49,51,53,55,57,-1,59,61,63,65,67,69,71,73,75,77,79,81,83,85,87,89,91,93,95,97,99,101,103,105,107,109,111,113,115,-1,117,-1,-1,-1,-1,-1,-1,-1,-1,-1,-1,-1,-1,-1,-1,-1,-1,-1,-1,-1,-1,-1,-1,-1,-1,-1,-1,-1,-1,-1,-1,-1,-1,-1,-1,-1,-1,-1,-1,-1,-1,-1,-1,-1,-1,-1,-1,-1,-1,-1,-1,-1,-1,-1,-1,-1,-1,-1,-1],"loss_changes":[4.3304944E0,4.4602194E0,3.873486E0,4.871769E0,5.424738E0,2.939339E0,4.6724153E0,1.1961592E1,4.4564385E0,4.9199114E0,8.085623E0,7.7120094E0,4.0295095E0,5.206232E0,8.464885E-1,4.1138797E0,4.8451834E0,7.280354E0,7.245883E0,2.2218502E0,3.8959703E0,3.844554E0,5.162678E0,5.151436E0,7.824305E0,5.770913E0,4.3191824E0,4.7777367E0,5.86192E0,0E0,6.25957E-1,3.397047E0,4.4986324E0,1.9945812E0,9.954766E0,5.7577987E0,9.132191E0,3.699758E0,6.4305468E0,3.1250906E-1,3.0562243E0,3.1676798E0,1.0261627E1,2.8995209E0,3.000888E0,2.0887365E0,2.2789497E0,3.4567046E0,1.4588308E-1,7.091934E0,4.166854E0,6.874074E0,9.340654E0,8.58299E0,1.2597612E1,5.172747E0,8.077168E0,4.2790976E0,4.036435E0,0E0,8.2711935E-1,0E0,0E0,0E0,0E0,0E0,0E0,0E0,0E0,0E0,0E0,0E0,0E0,0E0,0E0,0E0,0E0,0E0,0E0,0E0,0E0,0E0,0E0,0E0,0E0,0E0,0E0,0E0,0E0,0E0,0E0,0E0,0E0,0E0,0E0,0E0,0E0,0E0,0E0,0E0,0E0,0E0,0E0,0E0,0E0,0E0,0E0,0E0,0E0,0E0,0E0,0E0,0E0,0E0,0E0,0E0,0E0,0E0,0E0],"parents":[2147483647,0,0,1,1,2,2,3,3,4,4,5,5,6,6,7,7,8,8,9,9,10,10,11,11,12,12,13,13,14,14,15,15,16,16,17,17,18,18,19,19,20,20,21,21,22,22,23,23,24,24,25,25,26,26,27,27,28,28,30,30,31,31,32,32,33,33,34,34,35,35,36,36,37,37,38,38,39,39,40,40,41,41,42,42,43,43,44,44,45,45,46,46,47,47,48,48,49,49,50,50,51,51,52,52,53,53,54,54,55,55,56,56,57,57,58,58,60,60],"right_children":[2,4,6,8,10,12,14,16,18,20,22,24,26,28,30,32,34,36,38,40,42,44,46,48,50,52,54,56,58,-1,60,62,64,66,68,70,72,74,76,78,80,82,84,86,88,90,92,94,96,98,100,102,104,106,108,110,112,114,116,-1,118,-1,-1,-1,-1,-1,-1,-1,-1,-1,-1,-1,-1,-1,-1,-1,-1,-1,-1,-1,-1,-1,-1,-1,-1,-1,-1,-1,-1,-1,-1,-1,-1,-1,-1,-1,-1,-1,-1,-1,-1,-1,-1,-1,-1,-1,-1,-1,-1,-1,-1,-1,-1,-1,-1,-1,-1,-1,-1],"split_conditions":[4.4433382E-1,4.3516317E-1,9.9229836E-1,8.0469066E-1,5.898385E-1,7.8038174E-1,6.5473694E-1,8.0301535E-1,8.9829284E-1,7.7495934E-3,9.6194774E-1,5.234518E-1,7.9328924E-1,9.791589E-1,4.6079877E-1,1.8410555E-1,5.603866E-1,1.1744774E-2,2.4289139E-1,2.7011904E-1,5.293784E-1,7.8630996E-1,9.712232E-1,5.2135044E-1,5.6649595E-1,1.763427E-1,5.1724917E-1,9.365705E-1,5.2741724E-1,1.651247E-4,6.568224E-1,3.8426024E-1,4.4666016E-1,4.124923E-1,4.2139623E-1,2.9364488E-1,2.352809E-2,9.398185E-2,2.623729E-1,2.1158831E-1,4.7823107E-1,4.3588805E-1,9.808942E-1,5.1346165E-1,4.3971154E-1,8.524707E-1,6.235106E-1,1.7048785E-1,5.1852083E-1,9.02873E-1,5.419487E-1,7.880831E-1,1.8410555E-1,9.383411E-1,5.4700065E-1,9.339925E-1,5.6649595E-1,2.1358865E-1,9.962296E-1,-7.895015E-3,5.5454665E-1,2.770118E-3,-2.9378563E-2,1.6455202E-3,-5.1133647E-3,-5.1503617E-2,-2.5112644E-2,-3.7529394E-2,1.573371E-2,1.0946964E-2,-3.0290514E-2,2.3739731E-2,1.3807401E-3,-7.8359945E-3,5.0574974E-3,-1.1790848E-2,-1.3816222E-3,2.1269707E-2,7.260511E-2,-8.572264E-3,4.3301445E-2,-9.9789165E-3,-2.3071195E-3,-1.2042371E-2,2.0223929E-2,3.0003302E-3,4.833998E-2,-4.3463553E-3,5.012488E-3,1.7388653E-2,6.831868E-2,-4.8445553E-2,2.3444451E-2,-3.1724487E-2,8.219139E-3,7.737873E-2,2.1505965E-2,-3.036387E-2,4.1839622E-2,9.651515E-3,-1.1962201E-2,2.21121E-4,4.149682E-2,-2.7327338E-2,-1.6079029E-3,-9.98077E-5,3.8549234E-3,4.7093234E-3,4.656388E-4,-3.9294655E-3,4.2182952E-2,-2.703791E-2,1.97942E-2,4.6657447E-2,-1.0415801E-2,8.5315436E-2,1.2361859E-2,-6.495576E-2,-1.876384E-2],"split_indices":[0,0,2,1,4,1,4,1,1,2,2,4,1,1,0,4,2,2,4,4,4,1,1,4,4,4,4,1,4,0,4,2,4,0,4,4,2,2,4,4,4,0,1,2,0,1,4,4,0,2,0,1,4,2,4,1,4,4,2,0,0,0,0,0,0,0,0,0,0,0,0,0,0,0,0,0,0,0,0,0,0,0,0,0,0,0,0,0,0,0,0,0,0,0,0,0,0,0,0,0,0,0,0,0,0,0,0,0,0,0,0,0,0,0,0,0,0,0,0],"split_type":[0,0,0,0,0,0,0,0,0,0,0,0,0,0,0,0,0,0,0,0,0,0,0,0,0,0,0,0,0,0,0,0,0,0,0,0,0,0,0,0,0,0,0,0,0,0,0,0,0,0,0,0,0,0,0,0,0,0,0,0,0,0,0,0,0,0,0,0,0,0,0,0,0,0,0,0,0,0,0,0,0,0,0,0,0,0,0,0,0,0,0,0,0,0,0,0,0,0,0,0,0,0,0,0,0,0,0,0,0,0,0,0,0,0,0,0,0,0,0],"sum_hessian":[5.1703277E4,1.15085625E4,4.019472E4,9.087641E3,2.4209219E3,3.9882234E4,3.1248175E2,1.099458E3,7.988182E3,2.053264E3,3.676578E2,4.7729932E2,3.9404938E4,3.036207E2,8.861051E0,1.0292267E3,7.023137E1,3.8102498E3,4.1779326E3,1.3482693E1,2.0397814E3,3.5404193E2,1.3615874E1,3.4238715E2,1.3491217E2,2.3182627E3,3.708667E4,2.77767E2,2.585369E1,1.1984993E0,7.662551E0,3.5362347E1,9.938643E2,3.6798466E1,3.34329E1,4.1157272E1,3.7690925E3,6.5954956E2,3.518383E3,3.13825E0,1.0344442E1,1.742343E3,2.9743823E2,1.3417583E1,3.4062436E2,1.0991134E1,2.6247406E0,3.394902E2,2.8969429E0,3.9519417E1,9.539275E1,4.1105133E1,2.2771577E3,2.6017809E4,1.1068865E4,2.1841599E2,5.935102E1,1.8430767E1,7.422923E0,1.4369044E0,6.2256465E0,1.2210494E1,2.3151854E1,5.491153E2,4.4474902E2,1.2901567E1,2.38969E1,1.528143E1,1.8151468E1,1.103156E1,3.0125713E1,4.5240322E1,3.723852E3,6.0432602E1,5.9911694E2,1.542495E2,3.3641335E3,1.690077E0,1.4481732E0,6.7428E0,3.6016421E0,1.4610522E2,1.5962379E3,2.712483E2,2.6189943E1,6.9435396E0,6.4740434E0,1.6969292E2,1.7093144E2,3.824017E0,7.167117E0,1.4306741E0,1.1940665E0,4.5423384E0,3.3494785E2,1.6878161E0,1.2091267E0,3.6647778E1,2.8716407E0,6.1793755E1,3.3599003E1,2.5331802E1,1.5773329E1,3.487234E1,2.2422854E3,2.4565684E4,1.4521237E3,2.1759863E3,8.892879E3,2.1315309E2,5.2629027E0,4.8824318E1,1.0526703E1,3.1122568E0,1.531851E1,3.3538005E0,4.0691223E0,3.5931602E0,2.6324863E0],"tree_param":{"num_deleted":"0","num_feature":"6","num_nodes":"119","size_leaf_vector":"1"}},{"base_weights":[-1.936149E-4,-7.8477105E-3,1.7968971E-2,-6.02304E-3,-7.150845E-2,1.1138322E-1,1.3783185E-2,-7.689222E-3,5.3089615E-2,-8.224503E-2,7.597021E-1,-8.2146895E-1,1.1742643E-1,1.1284443E-1,9.727827E-3,-6.3643437E-3,-3.3056632E-1,1.2259017E-1,-5.6244943E-2,-9.206231E-2,7.002319E-1,-5.17867E-2,1.1158096E0,-5.657955E-2,-2.1084347E-4,-2.2845104E-1,1.3062038E-1,-4.3974483E-1,1.3452202E-1,-3.5026647E-2,1.616582E-2,-4.1897646E-3,-6.3913986E-2,-4.7284052E-1,-1.1910901E-1,2.3324812E-2,2.3065431E-1,-1.9519511E-1,1.6290458E-1,-8.091989E-2,-7.5288665E-1,-6.58688E-1,1.1296666E0,5.3695536E-1,1.3403516E0,-6.216586E-1,7.939131E-1,2.6981214E-1,9.999252E-2,2.3348682E-2,-5.6119084E-1,4.03518E-1,9.686215E-2,-1.5277447E-1,-6.3152406E-3,3.2440126E-2,-8.621375E-3,-2.7706882E-4,3.8407992E-3,-3.5569554E-3,2.5615433E-2,-1.712147E-2,-4.693104E-2,3.911774E-3,-2.6089538E-2,8.567172E-3,-9.255379E-3,-5.408327E-2,1.2168897E-2,1.5910381E-2,-1.3493575E-2,1.5638694E-2,1.2429402E-3,-3.323124E-2,-3.4289954E-3,-4.4029556E-2,2.3448572E-2,-9.282522E-5,-4.9069103E-2,7.386098E-2,6.7374925E-3,4.6320807E-2,7.7731325E-3,1.1362865E-2,7.8447886E-2,-4.481349E-2,-6.4700455E-3,5.8564436E-2,-1.4283724E-2,1.0870477E-2,3.5178665E-2,-7.112107E-3,7.6440894E-3,-4.6104293E-2,-6.9210567E-3,9.242333E-3,4.825171E-2,4.2412788E-2,4.168987E-3,-9.473366E-3,6.702756E-3,7.7013025E-4,-7.86104E-3,1.8385934E-3,-1.20676E-2,-1.2900452E-2,-2.9624127E-6],"categories":[],"categories_nodes":[],"categories_segments":[],"categories_sizes":[],"default_left":[0,0,0,0,0,0,0,0,0,0,0,0,0,0,0,0,0,0,0,0,0,0,0,0,0,0,0,0,0,0,0,0,0,0,0,0,0,0,0,0,0,0,0,0,0,0,0,0,0,0,0,0,0,0,0,0,0,0,0,0,0,0,0,0,0,0,0,0,0,0,0,0,0,0,0,0,0,0,0,0,0,0,0,0,0,0,0,0,0,0,0,0,0,0,0,0,0,0,0,0,0,0,0,0,0,0,0],"id":11,"left_children":[1,3,5,7,9,11,13,15,17,19,21,23,25,27,29,31,33,35,37,39,41,-1,43,-1,-1,45,47,49,51,53,55,57,59,61,63,65,67,69,71,73,75,77,79,81,83,85,87,89,91,-1,93,95,97,99,101,103,105,-1,-1,-1,-1,-1,-1,-1,-1,-1,-1,-1,-1,-1,-1,-1,-1,-1,-1,-1,-1,-1,-1,-1,-1,-1,-1,-1,-1,-1,-1,-1,-1,-1,-1,-1,-1,-1,-1,-1,-1,-1,-1,-1,-1,-1,-1,-1,-1,-1,-1],"loss_changes":[7.1863956E0,4.2240443E0,5.991175E0,3.4826608E0,9.105097E0,3.801116E0,5.8922625E0,1.4707792E1,7.37286E0,7.755728E0,9.479452E0,1.0989552E0,3.013444E0,6.9690776E0,4.061501E0,4.285697E0,4.170803E0,6.3552246E0,1.152414E1,7.226492E0,8.051773E0,0E0,7.5492954E-1,0E0,0E0,1.02972975E1,2.6605577E0,2.6856546E0,5.591734E0,5.992366E0,4.971045E0,3.6137319E0,5.2276316E0,4.7601376E0,4.6379695E0,9.601051E0,5.0016785E0,8.958285E0,3.0332038E0,6.9730735E0,2.9549265E0,7.694143E-1,3.2186108E0,5.749812E-1,1.553441E0,2.3407812E0,3.2733822E0,2.4180317E0,6.662033E0,0E0,2.9030724E0,8.164468E0,4.882035E0,3.6826096E0,4.6769376E0,8.831179E0,1.0430072E1,0E0,0E0,0E0,0E0,0E0,0E0,0E0,0E0,0E0,0E0,0E0,0E0,0E0,0E0,0E0,0E0,0E0,0E0,0E0,0E0,0E0,0E0,0E0,0E0,0E0,0E0,0E0,0E0,0E0,0E0,0E0,0E0,0E0,0E0,0E0,0E0,0E0,0E0,0E0,0E0,0E0,0E0,0E0,0E0,0E0,0E0,0E0,0E0,0E0,0E0],"parents":[2147483647,0,0,1,1,2,2,3,3,4,4,5,5,6,6,7,7,8,8,9,9,10,10,11,11,12,12,13,13,14,14,15,15,16,16,17,17,18,18,19,19,20,20,22,22,25,25,26,26,27,27,28,28,29,29,30,30,31,31,32,32,33,33,34,34,35,35,36,36,37,37,38,38,39,39,40,40,41,41,42,42,43,43,44,44,45,45,46,46,47,47,48,48,50,50,51,51,52,52,53,53,54,54,55,55,56,56],"right_children":[2,4,6,8,10,12,14,16,18,20,22,24,26,28,30,32,34,36,38,40,42,-1,44,-1,-1,46,48,50,52,54,56,58,60,62,64,66,68,70,72,74,76,78,80,82,84,86,88,90,92,-1,94,96,98,100,102,104,106,-1,-1,-1,-1,-1,-1,-1,-1,-1,-1,-1,-1,-1,-1,-1,-1,-1,-1,-1,-1,-1,-1,-1,-1,-1,-1,-1,-1,-1,-1,-1,-1,-1,-1,-1,-1,-1,-1,-1,-1,-1,-1,-1,-1,-1,-1,-1,-1,-1,-1],"split_conditions":[5.1724917E-1,5.0760114E-1,4.0850693E-1,9.940065E-1,5.9759915E-1,2.0299162E-1,5.234518E-1,9.931541E-1,3.729647E-1,9.9738246E-1,2.589645E-1,6.235106E-1,7.8543735E-1,4.1639048E-1,8.0639297E-1,9.8531437E-1,6.671437E-1,6.290359E-1,5.1929533E-1,5.9356195E-1,3.6228108E-1,-5.17867E-2,5.2004683E-1,-5.657955E-2,-2.1084347E-4,7.796277E-1,8.2487935E-1,3.4375593E-1,2.9989484E-1,5.50877E-1,9.2367166E-1,9.8180175E-1,5.0375134E-1,5.568267E-1,4.0965316E-1,4.549783E-1,1.6869067E-1,4.140259E-1,5.5755424E-1,4.0392935E-1,9.774222E-1,2.9688177E-1,9.9914235E-1,8.507211E-1,8.0126715E-1,6.1170834E-1,9.372435E-1,9.1532856E-1,8.5515195E-1,2.3348682E-2,8.991538E-1,5.498593E-1,7.8038174E-1,5.79583E-1,8.0301535E-1,9.876626E-1,4.1478375E-1,-2.7706882E-4,3.8407992E-3,-3.5569554E-3,2.5615433E-2,-1.712147E-2,-4.693104E-2,3.911774E-3,-2.6089538E-2,8.567172E-3,-9.255379E-3,-5.408327E-2,1.2168897E-2,1.5910381E-2,-1.3493575E-2,1.5638694E-2,1.2429402E-3,-3.323124E-2,-3.4289954E-3,-4.4029556E-2,2.3448572E-2,-9.282522E-5,-4.9069103E-2,7.386098E-2,6.7374925E-3,4.6320807E-2,7.7731325E-3,1.1362865E-2,7.8447886E-2,-4.481349E-2,-6.4700455E-3,5.8564436E-2,-1.4283724E-2,1.0870477E-2,3.5178665E-2,-7.112107E-3,7.6440894E-3,-4.6104293E-2,-6.9210567E-3,9.242333E-3,4.825171E-2,4.2412788E-2,4.168987E-3,-9.473366E-3,6.702756E-3,7.7013025E-4,-7.86104E-3,1.8385934E-3,-1.20676E-2,-1.2900452E-2,-2.9624127E-6],"split_indices":[4,4,0,1,0,3,4,1,4,1,3,4,1,0,1,1,3,3,0,0,3,0,3,0,0,3,1,3,3,4,1,1,4,0,4,3,4,0,0,0,1,3,1,1,1,4,3,3,1,0,1,0,1,0,1,3,0,0,0,0,0,0,0,0,0,0,0,0,0,0,0,0,0,0,0,0,0,0,0,0,0,0,0,0,0,0,0,0,0,0,0,0,0,0,0,0,0,0,0,0,0,0,0,0,0,0,0],"split_type":[0,0,0,0,0,0,0,0,0,0,0,0,0,0,0,0,0,0,0,0,0,0,0,0,0,0,0,0,0,0,0,0,0,0,0,0,0,0,0,0,0,0,0,0,0,0,0,0,0,0,0,0,0,0,0,0,0,0,0,0,0,0,0,0,0,0,0,0,0,0,0,0,0,0,0,0,0,0,0,0,0,0,0,0,0,0,0,0,0,0,0,0,0,0,0,0,0,0,0,0,0,0,0,0,0,0,0],"sum_hessian":[5.1691918E4,3.6366766E4,1.5325151E4,3.5354516E4,1.01225104E3,6.5615356E2,1.4668998E4,3.4386156E4,9.6835754E2,1.0002323E3,1.2018745E1,3.3548481E0,6.5279877E2,5.7584564E2,1.4093152E4,3.4246652E4,1.3950638E2,5.919514E2,3.7640616E2,9.8870984E2,1.152242E1,1.6733745E0,1.0345371E1,2.1531608E0,1.2016875E0,2.338737E1,6.294114E2,2.1009188E1,5.548364E2,1.7718044E3,1.2321348E4,3.3000754E4,1.2458986E3,8.265664E1,5.684974E1,3.0917026E2,2.8278116E2,2.304196E2,1.4598657E2,9.734191E2,1.5290755E1,2.6386678E0,8.883752E0,3.8392875E0,6.5060835E0,1.7174059E1,6.2133093E0,1.1210918E2,5.173022E2,2.1455264E0,1.886366E1,6.6945435E1,4.8789102E2,3.4649188E2,1.4253126E3,7.437722E3,4.883626E3,3.2460076E4,5.4067706E2,1.2313356E3,1.4562887E1,6.5931915E1,1.6724726E1,3.869297E1,1.8156767E1,1.8088933E2,1.2828093E2,1.9086611E0,2.808725E2,2.8845392E1,2.015742E2,6.938886E1,7.659771E1,1.9058453E1,9.5436066E2,1.4096716E1,1.1940391E0,1.2006149E0,1.4380529E0,6.2245655E0,2.6591864E0,1.1929861E0,2.6463013E0,1.4483063E0,5.0577774E0,1.0497297E1,6.676762E0,4.5410275E0,1.6722814E0,1.0136456E2,1.0744617E1,9.240315E1,4.2489905E2,9.53937E0,9.324291E0,4.913858E1,1.7806852E1,7.508639E0,4.8038235E2,3.0749487E2,3.8997017E1,1.2467782E3,1.7853441E2,7.322733E3,1.1498937E2,1.6113515E2,4.7224907E3],"tree_param":{"num_deleted":"0","num_feature":"6","num_nodes":"107","size_leaf_vector":"1"}},{"base_weights":[-2.7551998E-3,-3.6766457E-3,7.575849E-2,-1.1748603E-1,-3.2170129E-3,-2.90697E-1,1.1345719E-1,-3.631996E-1,3.5274994E-2,-7.255147E-3,6.3384036E-3,-5.1902986E-1,1.9582729E-1,-5.6215577E-2,1.5019627E-1,-6.6136694E-1,-5.4744452E-2,4.409358E-1,-1.21285506E-1,-5.4280795E-3,-7.151607E-2,-4.3483105E-2,1.4121808E-2,-3.578438E-1,-1.1308874E0,5.826687E-1,-2.3141283E-1,1.0704079E-1,-5.902919E-1,8.2545495E-1,1.2436854E-1,3.4760392E-1,-7.774603E-1,8.849334E-2,-8.766179E-1,1.2642612E-1,9.697126E-1,1.9828758E-1,-2.9569843E-1,3.6605928E-2,-7.87057E-3,-2.0944123E-1,-3.6734432E-2,1.8750899E-1,-5.255788E-2,1.188581E-1,9.436415E-3,1.0109196E-1,-6.172178E-1,-6.7390464E-2,-5.2365605E-3,1.431891E-1,8.0294736E-2,-3.8661468E-1,2.3454573E-2,-4.3989205E-1,2.0685901E-1,-3.1283206E-1,-1.077101E0,9.780052E-1,-1.5671685E-2,-5.73577E-1,1.4318566E-1,4.47916E-2,-2.7993722E-2,-5.1040646E-2,-2.602422E-2,-5.027889E-2,8.654179E-3,-5.487868E-2,3.5006055E-4,-1.8185833E-3,6.443146E-2,5.8650207E-2,1.5618843E-3,-1.6667718E-2,2.2344751E-2,-2.197711E-2,3.8623195E-2,2.9317855E-3,-3.2840397E-3,-4.5199745E-4,4.3643485E-3,-6.886401E-3,-3.191959E-2,-2.2400282E-3,2.8559715E-2,-3.5712493E-3,3.4192976E-2,-6.026718E-3,-1.2674484E-3,2.0747324E-2,4.582524E-3,5.3428224E-4,-1.3618307E-2,-1.3807224E-2,4.650772E-2,-4.0230934E-2,2.4428515E-2,2.62764E-2,-4.864001E-2,-5.1713344E-2,-3.6185936E-3,4.4719214E-3,-3.5912525E-2,-4.889521E-2,1.3891272E-2,-3.327669E-2,1.7116318E-2,-6.812579E-2,-1.4698207E-2,2.963371E-4,5.320076E-2,3.0527277E-2,-4.364865E-2,7.5648776E-3,-2.7634246E-2],"categories":[],"categories_nodes":[],"categories_segments":[],"categories_sizes":[],"default_left":[0,0,0,0,0,0,0,0,0,0,0,0,0,0,0,0,0,0,0,0,0,0,0,0,0,0,0,0,0,0,0,0,0,0,0,0,0,0,0,0,0,0,0,0,0,0,0,0,0,0,0,0,0,0,0,0,0,0,0,0,0,0,0,0,0,0,0,0,0,0,0,0,0,0,0,0,0,0,0,0,0,0,0,0,0,0,0,0,0,0,0,0,0,0,0,0,0,0,0,0,0,0,0,0,0,0,0,0,0,0,0,0,0,0,0,0,0],"id":12,"left_children":[1,3,5,7,9,11,13,15,17,19,21,23,25,27,29,31,33,35,37,39,41,43,45,47,49,51,53,55,57,59,61,63,65,67,69,71,73,75,77,79,81,83,85,87,89,91,93,95,97,-1,-1,99,-1,101,-1,103,105,107,109,111,-1,113,115,-1,-1,-1,-1,-1,-1,-1,-1,-1,-1,-1,-1,-1,-1,-1,-1,-1,-1,-1,-1,-1,-1,-1,-1,-1,-1,-1,-1,-1,-1,-1,-1,-1,-1,-1,-1,-1,-1,-1,-1,-1,-1,-1,-1,-1,-1,-1,-1,-1,-1,-1,-1,-1,-1],"loss_changes":[3.742944E0,2.6744494E0,8.323927E0,7.7319975E0,1.965194E0,6.351656E0,3.4050455E0,7.222868E0,8.165216E0,4.202897E0,5.8675933E0,3.3986769E0,3.2248766E0,8.582753E0,7.7136555E0,4.960657E0,4.7729454E0,5.8282146E0,5.2389174E0,3.5743222E0,4.739935E0,4.2955685E0,6.4206324E0,3.8699408E0,1.5457067E0,4.3102684E0,1.2250714E0,4.222766E0,2.7736015E0,3.1442175E0,5.7667546E0,2.9010124E0,1.7337189E0,3.401518E0,1.1813197E0,4.5096326E0,2.4808264E0,4.5652175E0,9.639431E0,4.3120627E0,3.6618311E0,6.036516E0,3.907103E0,1.0009773E1,3.6369114E0,4.4753113E0,4.412814E0,4.137881E0,4.657248E0,0E0,0E0,3.993315E0,0E0,1.6361532E0,0E0,1.8324265E0,5.7100086E0,3.9430633E0,1.376709E0,1.2182636E0,0E0,4.632352E0,2.4673014E0,0E0,0E0,0E0,0E0,0E0,0E0,0E0,0E0,0E0,0E0,0E0,0E0,0E0,0E0,0E0,0E0,0E0,0E0,0E0,0E0,0E0,0E0,0E0,0E0,0E0,0E0,0E0,0E0,0E0,0E0,0E0,0E0,0E0,0E0,0E0,0E0,0E0,0E0,0E0,0E0,0E0,0E0,0E0,0E0,0E0,0E0,0E0,0E0,0E0,0E0,0E0,0E0,0E0,0E0],"parents":[2147483647,0,0,1,1,2,2,3,3,4,4,5,5,6,6,7,7,8,8,9,9,10,10,11,11,12,12,13,13,14,14,15,15,16,16,17,17,18,18,19,19,20,20,21,21,22,22,23,23,24,24,25,25,26,26,27,27,28,28,29,29,30,30,31,31,32,32,33,33,34,34,35,35,36,36,37,37,38,38,39,39,40,40,41,41,42,42,43,43,44,44,45,45,46,46,47,47,48,48,51,51,53,53,55,55,56,56,57,57,58,58,59,59,61,61,62,62],"right_children":[2,4,6,8,10,12,14,16,18,20,22,24,26,28,30,32,34,36,38,40,42,44,46,48,50,52,54,56,58,60,62,64,66,68,70,72,74,76,78,80,82,84,86,88,90,92,94,96,98,-1,-1,100,-1,102,-1,104,106,108,110,112,-1,114,116,-1,-1,-1,-1,-1,-1,-1,-1,-1,-1,-1,-1,-1,-1,-1,-1,-1,-1,-1,-1,-1,-1,-1,-1,-1,-1,-1,-1,-1,-1,-1,-1,-1,-1,-1,-1,-1,-1,-1,-1,-1,-1,-1,-1,-1,-1,-1,-1,-1,-1,-1,-1,-1,-1],"split_conditions":[5.9759915E-1,4.007844E-1,2.1358865E-1,3.7635198E-1,5.1724917E-1,9.219227E-1,1.9202843E-1,4.5038846E-1,2.9761264E-1,5.0760114E-1,8.0814344E-1,2.0760296E-1,9.660227E-1,1.4519444E-1,2.3122348E-1,4.317213E-2,3.1768724E-1,9.210392E-1,8.515957E-1,5.4985516E-2,5.095692E-1,5.234518E-1,4.0929383E-1,4.003648E-1,8.887301E-1,9.5392096E-1,9.940065E-1,8.0301535E-1,5.9919494E-1,8.7569207E-1,2.4289139E-1,3.380627E-1,3.1500533E-1,1.1744774E-2,9.3741685E-1,2.8768885E-1,9.8354644E-1,8.0037045E-1,6.214512E-1,4.4470114E-1,5.95199E-1,8.638022E-1,9.9738246E-1,6.730337E-1,4.5609015E-1,8.2487935E-1,9.962296E-1,5.9919494E-1,9.462832E-1,-6.7390464E-2,-5.2365605E-3,9.460443E-1,8.0294736E-2,5.9837025E-1,2.3454573E-2,4.2712653E-1,2.3699862E-1,9.1750157E-1,1.8047644E-1,7.8630996E-1,-1.5671685E-2,8.22245E-1,6.6284776E-1,4.47916E-2,-2.7993722E-2,-5.1040646E-2,-2.602422E-2,-5.027889E-2,8.654179E-3,-5.487868E-2,3.5006055E-4,-1.8185833E-3,6.443146E-2,5.8650207E-2,1.5618843E-3,-1.6667718E-2,2.2344751E-2,-2.197711E-2,3.8623195E-2,2.9317855E-3,-3.2840397E-3,-4.5199745E-4,4.3643485E-3,-6.886401E-3,-3.191959E-2,-2.2400282E-3,2.8559715E-2,-3.5712493E-3,3.4192976E-2,-6.026718E-3,-1.2674484E-3,2.0747324E-2,4.582524E-3,5.3428224E-4,-1.3618307E-2,-1.3807224E-2,4.650772E-2,-4.0230934E-2,2.4428515E-2,2.62764E-2,-4.864001E-2,-5.1713344E-2,-3.6185936E-3,4.4719214E-3,-3.5912525E-2,-4.889521E-2,1.3891272E-2,-3.327669E-2,1.7116318E-2,-6.812579E-2,-1.4698207E-2,2.963371E-4,5.320076E-2,3.0527277E-2,-4.364865E-2,7.5648776E-3,-2.7634246E-2],"split_indices":[0,0,4,2,4,1,2,4,4,4,1,4,1,2,4,2,2,1,1,2,4,4,0,2,1,1,1,1,0,2,4,4,4,2,1,4,1,1,4,4,0,2,1,2,0,1,2,0,2,0,0,1,0,0,0,4,4,1,2,1,0,1,4,0,0,0,0,0,0,0,0,0,0,0,0,0,0,0,0,0,0,0,0,0,0,0,0,0,0,0,0,0,0,0,0,0,0,0,0,0,0,0,0,0,0,0,0,0,0,0,0,0,0,0,0,0,0],"split_type":[0,0,0,0,0,0,0,0,0,0,0,0,0,0,0,0,0,0,0,0,0,0,0,0,0,0,0,0,0,0,0,0,0,0,0,0,0,0,0,0,0,0,0,0,0,0,0,0,0,0,0,0,0,0,0,0,0,0,0,0,0,0,0,0,0,0,0,0,0,0,0,0,0,0,0,0,0,0,0,0,0,0,0,0,0,0,0,0,0,0,0,0,0,0,0,0,0,0,0,0,0,0,0,0,0,0,0,0,0,0,0,0,0,0,0,0,0],"sum_hessian":[5.1731766E4,5.113262E4,5.991453E2,2.046505E2,5.092797E4,5.5261093E1,5.438843E2,7.792763E1,1.2672286E2,3.5799348E4,1.5128621E4,3.7564648E1,1.7696445E1,9.671116E1,4.471731E2,3.9042843E1,3.888479E1,3.4782425E1,9.194044E1,3.4810695E4,9.886537E2,2.0435146E3,1.3085106E4,3.0986498E1,6.578151E0,9.096389E0,8.600056E0,7.468197E1,2.2029194E1,1.5333111E1,4.3183997E2,3.8229835E0,3.521986E1,3.387356E1,5.0112267E0,2.2587036E1,1.2195388E1,3.2413322E1,5.952712E1,1.9109105E3,3.2899785E4,1.980949E2,7.9055884E2,7.6503685E1,1.967011E3,5.5925574E2,1.2525851E4,1.1409248E1,1.957725E1,5.171483E0,1.4066682E0,7.1607547E0,1.935634E0,7.4070587E0,1.1929972E0,1.1000441E1,6.3681526E1,1.5078009E1,6.9511857E0,1.3646476E1,1.6866353E0,1.0563083E1,4.212769E2,2.3912246E0,1.4317588E0,1.6562754E1,1.8657104E1,1.6496555E0,3.2223907E1,3.8150985E0,1.1961279E0,2.0661537E1,1.9254991E0,9.81859E0,2.376798E0,1.0219098E1,2.2194221E1,5.298096E1,6.5461583E0,1.5726345E3,3.38276E2,3.2501285E4,3.9849924E2,1.7085237E2,2.7242517E1,7.8112103E2,9.437777E0,5.083855E1,2.5665134E1,5.612931E2,1.4057179E3,4.5865948E1,5.133898E2,1.2471526E4,5.4324154E1,8.299682E0,3.109566E0,1.6973125E1,2.604124E0,5.727575E0,1.43318E0,1.6712749E0,5.7357836E0,4.025046E0,6.9753947E0,2.8766654E0,6.080486E1,9.791149E0,5.2868595E0,4.5522842E0,2.3989015E0,1.1961855E0,1.245029E1,1.922049E0,8.641034E0,4.1719614E2,4.080759E0],"tree_param":{"num_deleted":"0","num_feature":"6","num_nodes":"117","size_leaf_vector":"1"}},{"base_weights":[2.0892392E-3,1.4979988E-1,9.2753075E-4,1.5949279E-1,-4.5639187E-2,-1.0449796E-4,8.608195E-2,8.258694E-2,2.7532658E-1,-1.5928233E-2,4.7947923E-3,-2.4191007E-1,1.18077636E-1,1.12894736E-1,-2.3326865E-1,5.788475E-2,4.2986372E-1,-3.969315E-3,-4.398715E-2,8.266995E-2,2.709161E-3,2.715991E-1,-3.9699838E-1,-4.511298E-3,2.0258622E-1,8.3656006E-2,8.6681736E-1,-3.364449E-1,3.2578045E-1,4.2935753E-1,-5.291652E-2,4.932155E-1,-2.2704987E-1,4.195967E-2,-1.1854052E-2,1.788334E-1,-5.365641E-2,7.545025E-2,8.4281725E-1,4.1604848E-3,-5.8881957E-2,6.457048E-1,-4.8490354E-1,1.2718636E-1,-6.1498475E-1,-3.971455E-2,6.779571E-1,2.657824E-1,-6.740742E-2,5.8392263E-3,-1.0221857E-2,-9.355275E-3,7.3487066E-2,-2.6583875E-2,9.60544E-3,4.5689907E-2,-1.4026544E-2,8.4152885E-2,-2.642245E-3,1.2996489E-2,-1.8886888E-2,1.6576435E-2,4.3286107E-2,-3.171331E-2,1.727884E-2,-8.316058E-3,3.0852824E-3,-4.423968E-3,-3.9088292E-5,3.4643397E-2,